{"learner":{"attributes":{"best_iteration":"99","best_ntree_limit":"100","scikit_learn":"{\"n_estimators\": 100, \"objective\": null, \"max_depth\": null, \"max_leaves\": null, \"max_bin\": null, \"grow_policy\": null, \"learning_rate\": null, \"verbosity\": null, \"booster\": null, \"tree_method\": null, \"gamma\": null, \"min_child_weight\": null, \"max_delta_step\": null, \"subsample\": null, \"sampling_method\": null, \"colsample_bytree\": null, \"colsample_bylevel\": null, \"colsample_bynode\": null, \"reg_alpha\": null, \"reg_lambda\": null, \"scale_pos_weight\": null, \"base_score\": null, \"missing\": NaN, \"num_parallel_tree\": null, \"random_state\": null, \"n_jobs\": null, \"monotone_constraints\": null, \"interaction_constraints\": null, \"importance_type\": null, \"gpu_id\": null, \"validate_parameters\": null, \"predictor\": null, \"enable_categorical\": false, \"feature_types\": null, \"max_cat_to_onehot\": null, \"max_cat_threshold\": null, \"eval_metric\": null, \"early_stopping_rounds\": null, \"callbacks\": null, \"_estimator_type\": \"regressor\"}"},"feature_names":["dataset","n_0","n_1","n_2","n_3","n_4","n_5","n_6","n_7"],"feature_types":["float","float","float","float","float","float","float","float","float"],"gradient_booster":{"model":{"gbtree_model_param":{"num_parallel_tree":"1","num_trees":"100","size_leaf_vector":"0"},"tree_info":[0,0,0,0,0,0,0,0,0,0,0,0,0,0,0,0,0,0,0,0,0,0,0,0,0,0,0,0,0,0,0,0,0,0,0,0,0,0,0,0,0,0,0,0,0,0,0,0,0,0,0,0,0,0,0,0,0,0,0,0,0,0,0,0,0,0,0,0,0,0,0,0,0,0,0,0,0,0,0,0,0,0,0,0,0,0,0,0,0,0,0,0,0,0,0,0,0,0,0,0],"trees":[{"base_weights":[-4.6284014E-1,-1.1256708E0,1.3365386E-1,-1.2449468E0,-8.5270125E-1,-1.6440642E-1,2.4201858E-1,-1.3212243E0,-1.151403E0,-9.497223E-1,-6.9531506E-1,-3.3723035E-1,-6.639657E-2,1.4524335E-1,3.019916E-1,-1.3553554E0,-1.2760093E0,-1.1679773E0,-1.015879E0,-9.9814945E-1,-8.872528E-1,-7.6005614E-1,-6.058657E-1,-4.3688473E-1,-2.753225E-1,-1.3531645E-1,-1.4174096E-2,-6.714085E-3,1.6171817E-1,2.6930603E-1,3.4886274E-1,-1.364321E0,-1.2552236E0,-1.1128324E0,-1.2862678E0,-1.188233E0,-1.0248568E0,-9.077795E-1,-1.0606947E0,-8.580242E-1,-1.0153711E0,-7.6483124E-1,-9.027999E-1,-7.9563165E-1,-7.2592854E-1,-6.5069646E-1,-5.640243E-1,-4.8868033E-1,-4.0501812E-1,-3.1474712E-1,-2.3676223E-1,-2.4873494E-1,-1.2055803E-1,-1.5298524E-1,1.6093319E-3,2.9014751E-2,-1.4216432E-1,-2.5241502E-4,1.7938389E-1,2.8022313E-1,1.1442561E-1,2.534784E-1,3.5778263E-1,-4.125935E-1,-3.765914E-1,-3.3696178E-1,-3.892975E-1,-3.5022774E-1,-3.0604243E-1,-3.332778E-1,-3.890743E-1,-3.6556843E-1,-3.4373873E-1,-2.7411827E-1,-3.223947E-1,-2.8402376E-1,-2.4829851E-1,-3.2549644E-1,-2.9678443E-1,-2.664933E-1,-2.2950812E-1,-2.57884E-1,-3.0974418E-1,-2.3881097E-1,-2.0994674E-1,-2.3023479E-1,-2.7540126E-1,-2.0802645E-1,-2.4262196E-1,-1.947718E-1,-2.2113505E-1,-1.795146E-1,-1.9768055E-1,-1.751356E-1,-1.5838903E-1,-1.4790075E-1,-1.4256279E-1,-1.3134727E-1,-1.1681241E-1,-1.14009E-1,-9.161407E-2,-9.787602E-2,-6.738989E-2,-6.6593945E-2,-9.699613E-2,-7.356651E-2,-3.180454E-2,-3.5446282E-2,-7.592718E-2,-4.54374E-2,5.1245796E-3,-3.7314342E-3,2.1873264E-2,-6.748551E-2,-2.8920641E-2,1.367887E-2,-4.0424652E-2,3.9743308E-2,6.387175E-2,4.4813417E-2,8.869046E-2,1.9240432E-3,4.9642656E-2,8.9912765E-2,4.2904645E-2,7.695943E-2,1.1072808E-1],"categories":[],"categories_nodes":[],"categories_segments":[],"categories_sizes":[],"default_left":[0,0,0,0,0,0,0,0,0,0,0,0,0,0,0,0,0,0,0,0,0,0,0,0,0,0,0,0,0,0,0,0,0,0,0,0,0,0,0,0,0,0,0,0,0,0,0,0,0,0,0,0,0,0,0,0,0,0,0,0,0,0,0,0,0,0,0,0,0,0,0,0,0,0,0,0,0,0,0,0,0,0,0,0,0,0,0,0,0,0,0,0,0,0,0,0,0,0,0,0,0,0,0,0,0,0,0,0,0,0,0,0,0,0,0,0,0,0,0,0,0,0,0,0,0,0,0],"id":0,"left_children":[1,3,5,7,9,11,13,15,17,19,21,23,25,27,29,31,33,35,37,39,41,43,45,47,49,51,53,55,57,59,61,63,65,67,69,71,73,75,77,79,81,83,85,87,89,91,93,95,97,99,101,103,105,107,109,111,113,115,117,119,121,123,125,-1,-1,-1,-1,-1,-1,-1,-1,-1,-1,-1,-1,-1,-1,-1,-1,-1,-1,-1,-1,-1,-1,-1,-1,-1,-1,-1,-1,-1,-1,-1,-1,-1,-1,-1,-1,-1,-1,-1,-1,-1,-1,-1,-1,-1,-1,-1,-1,-1,-1,-1,-1,-1,-1,-1,-1,-1,-1,-1,-1,-1,-1,-1,-1],"loss_changes":[2.834074E7,1.105448E6,1.2185955E6,1.68592E5,1.576515E5,1.7039169E5,1.6058738E5,2.0084E4,2.3838E4,1.93215E4,2.2801E4,2.2458531E4,2.3103512E4,2.6502531E4,2.6170375E4,6.656E3,9.37E3,2.7413E4,5.60175E3,8.6815E3,5.30775E3,2.772625E3,3.100625E3,2.3021875E3,3.4134844E3,4.6318945E3,8.001113E3,5.0111733E3,2.7328062E4,1.7017125E4,5.971125E3,8.155E3,3.413125E3,1.6745938E3,9.833E3,1.066E4,6.486625E3,1.057375E3,1.417375E3,1.1085E3,8.538E3,6.3703125E2,5.092375E3,1.4978125E3,9.9975E2,3.4359375E2,6.090625E2,3.0695312E1,4.4303125E2,6.788125E2,1.2320977E3,6.357383E2,4.4391562E3,1.3000049E3,7.7660625E3,1.4909084E3,8.187822E2,5.79184E3,1.3540719E4,1.8958688E4,3.6540947E3,3.0650234E3,7.35025E3,0E0,0E0,0E0,0E0,0E0,0E0,0E0,0E0,0E0,0E0,0E0,0E0,0E0,0E0,0E0,0E0,0E0,0E0,0E0,0E0,0E0,0E0,0E0,0E0,0E0,0E0,0E0,0E0,0E0,0E0,0E0,0E0,0E0,0E0,0E0,0E0,0E0,0E0,0E0,0E0,0E0,0E0,0E0,0E0,0E0,0E0,0E0,0E0,0E0,0E0,0E0,0E0,0E0,0E0,0E0,0E0,0E0,0E0,0E0,0E0,0E0,0E0,0E0,0E0],"parents":[2147483647,0,0,1,1,2,2,3,3,4,4,5,5,6,6,7,7,8,8,9,9,10,10,11,11,12,12,13,13,14,14,15,15,16,16,17,17,18,18,19,19,20,20,21,21,22,22,23,23,24,24,25,25,26,26,27,27,28,28,29,29,30,30,31,31,32,32,33,33,34,34,35,35,36,36,37,37,38,38,39,39,40,40,41,41,42,42,43,43,44,44,45,45,46,46,47,47,48,48,49,49,50,50,51,51,52,52,53,53,54,54,55,55,56,56,57,57,58,58,59,59,60,60,61,61,62,62],"right_children":[2,4,6,8,10,12,14,16,18,20,22,24,26,28,30,32,34,36,38,40,42,44,46,48,50,52,54,56,58,60,62,64,66,68,70,72,74,76,78,80,82,84,86,88,90,92,94,96,98,100,102,104,106,108,110,112,114,116,118,120,122,124,126,-1,-1,-1,-1,-1,-1,-1,-1,-1,-1,-1,-1,-1,-1,-1,-1,-1,-1,-1,-1,-1,-1,-1,-1,-1,-1,-1,-1,-1,-1,-1,-1,-1,-1,-1,-1,-1,-1,-1,-1,-1,-1,-1,-1,-1,-1,-1,-1,-1,-1,-1,-1,-1,-1,-1,-1,-1,-1,-1,-1,-1,-1,-1,-1],"split_conditions":[0E0,-5.8861542E-2,4.9858492E-2,-1.4831808E-1,-2.0902053E-2,1.7132726E-2,1.12770885E-1,-2.2900417E-1,-3.6723036E-2,-3.6692947E-2,-8.61691E-3,5.7188687E-3,3.1121073E-2,-1.0271649E-2,2.2670306E-1,-1.839371E-1,-3.223375E-1,-4.001549E-2,-1.8376152E-1,-1.4209035E-1,-1.2213623E-1,-1.4825073E-2,-4.43512E-3,1.2894807E-3,1.13800205E-2,-6.2719464E-2,-5.9056547E-2,1.8177934E-1,2.5547078E-2,2.9247037E-1,1.8180361E-1,-1.9191922E-1,-4.3629977E-1,-1.0680941E-1,-3.034188E-1,-9.509243E-2,-1.8002702E-1,1.4472084E-1,1.2110879E-1,4.1200392E-2,-1.4214446E-1,9.96212E-3,-1.2206647E-1,-1.1178293E-1,-9.7458616E-2,-8.855684E-2,-1.5616654E-3,1.3638372E-3,2.7256922E-3,-8.2180716E-2,-8.2180716E-2,9.569246E-2,-7.5998776E-2,1.1476914E-1,-7.426549E-2,7.247575E-2,-1.4519644E-1,1.818252E-1,7.562044E-2,3.384552E-2,1.01178795E-1,3.98603E-1,1.9349256E-1,-4.125935E-1,-3.765914E-1,-3.3696178E-1,-3.892975E-1,-3.5022774E-1,-3.0604243E-1,-3.332778E-1,-3.890743E-1,-3.6556843E-1,-3.4373873E-1,-2.7411827E-1,-3.223947E-1,-2.8402376E-1,-2.4829851E-1,-3.2549644E-1,-2.9678443E-1,-2.664933E-1,-2.2950812E-1,-2.57884E-1,-3.0974418E-1,-2.3881097E-1,-2.0994674E-1,-2.3023479E-1,-2.7540126E-1,-2.0802645E-1,-2.4262196E-1,-1.947718E-1,-2.2113505E-1,-1.795146E-1,-1.9768055E-1,-1.751356E-1,-1.5838903E-1,-1.4790075E-1,-1.4256279E-1,-1.3134727E-1,-1.1681241E-1,-1.14009E-1,-9.161407E-2,-9.787602E-2,-6.738989E-2,-6.6593945E-2,-9.699613E-2,-7.356651E-2,-3.180454E-2,-3.5446282E-2,-7.592718E-2,-4.54374E-2,5.1245796E-3,-3.7314342E-3,2.1873264E-2,-6.748551E-2,-2.8920641E-2,1.367887E-2,-4.0424652E-2,3.9743308E-2,6.387175E-2,4.4813417E-2,8.869046E-2,1.9240432E-3,4.9642656E-2,8.9912765E-2,4.2904645E-2,7.695943E-2,1.1072808E-1],"split_indices":[0,0,0,0,0,0,0,0,2,0,0,0,0,3,0,2,6,1,5,7,7,0,0,0,0,5,5,4,2,7,1,1,3,1,3,0,6,6,8,4,8,2,8,7,7,7,0,8,0,7,7,4,8,4,8,0,3,3,0,3,2,4,2,0,0,0,0,0,0,0,0,0,0,0,0,0,0,0,0,0,0,0,0,0,0,0,0,0,0,0,0,0,0,0,0,0,0,0,0,0,0,0,0,0,0,0,0,0,0,0,0,0,0,0,0,0,0,0,0,0,0,0,0,0,0,0,0],"split_type":[0,0,0,0,0,0,0,0,0,0,0,0,0,0,0,0,0,0,0,0,0,0,0,0,0,0,0,0,0,0,0,0,0,0,0,0,0,0,0,0,0,0,0,0,0,0,0,0,0,0,0,0,0,0,0,0,0,0,0,0,0,0,0,0,0,0,0,0,0,0,0,0,0,0,0,0,0,0,0,0,0,0,0,0,0,0,0,0,0,0,0,0,0,0,0,0,0,0,0,0,0,0,0,0,0,0,0,0,0,0,0,0,0,0,0,0,0,0,0,0,0,0,0,0,0,0,0],"sum_hessian":[7.168075E7,3.3952436E7,3.772832E7,2.3628E7,1.0324438E7,1.0059466E7,2.7668852E7,1.3015179E7,1.061282E7,6.387095E6,3.937343E6,3.640338E6,6.419128E6,1.0586308E7,1.7082544E7,7.416624E6,5.598555E6,9.456317E6,1.156503E6,3.597923E6,2.789172E6,2.284137E6,1.653206E6,1.394912E6,2.245426E6,2.76718E6,3.651948E6,1.035476E6,9.550832E6,1.0064243E7,7.018301E6,6.807113E6,6.09511E5,3.31155E5,5.2674E6,8.283899E6,1.172418E6,3.38949E5,8.17554E5,3.93799E5,3.204124E6,3.14306E5,2.474866E6,1.118335E6,1.165802E6,7.98086E5,8.5512E5,5.31311E5,8.63601E5,1.110266E6,1.13516E6,3.18614E5,2.448566E6,3.72847E5,3.279101E6,8.1935E5,2.16126E5,9.39244E5,8.611588E6,9.401551E6,6.62692E5,6.00194E5,6.418107E6,6.183687E6,6.23426E5,1.48267E5,4.61244E5,2.084E5,1.22755E5,3.01524E5,4.965876E6,4.831185E6,3.452714E6,3.62775E5,8.09643E5,2.28032E5,1.10917E5,6.10022E5,2.07532E5,2.97049E5,9.675E4,3.17131E5,2.886993E6,2.12359E5,1.01947E5,2.49937E5,2.224929E6,1.27127E5,9.91208E5,1.48434E5,1.017368E6,1.08595E5,6.89491E5,5.52398E5,3.02722E5,4.02223E5,1.29088E5,2.78832E5,5.84769E5,1.39309E5,9.70957E5,1.35488E5,9.99672E5,2.34499E5,8.4115E4,2.558E5,2.192766E6,2.76606E5,9.6241E4,3.01033E5,2.978068E6,4.21403E5,3.97947E5,7.6937E4,1.39189E5,7.00463E5,2.38781E5,3.589255E6,5.022333E6,9.90683E5,8.410868E6,2.12687E5,4.50005E5,4.23112E5,1.77082E5,6.44934E5,5.773173E6],"tree_param":{"num_deleted":"0","num_feature":"9","num_nodes":"127","size_leaf_vector":"0"}},{"base_weights":[-3.2398823E-1,-7.8796977E-1,9.355768E-2,-8.653926E-1,-5.802741E-1,-1.336615E-1,1.637561E-1,-9.1812766E-1,-7.8832686E-1,-6.4259654E-1,-4.7262213E-1,-2.522591E-1,-7.111566E-2,8.193394E-2,2.0579992E-1,-9.440664E-1,-8.7587094E-1,-6.6007906E-1,-8.0055135E-1,-6.739838E-1,-5.914448E-1,-5.1412946E-1,-4.146492E-1,-3.1784126E-1,-2.1476814E-1,-1.266766E-1,-3.7051618E-2,-4.0976267E-2,9.617923E-2,8.678301E-2,2.150914E-1,-9.510322E-1,-8.5478073E-1,-7.499561E-1,-8.8611954E-1,-7.008315E-1,-6.0226184E-1,-8.184782E-1,-7.017738E-1,-5.650981E-1,-6.871654E-1,-6.0202956E-1,-4.9292412E-1,-4.352395E-1,-5.245155E-1,-4.3830836E-1,-3.806633E-1,-3.4207675E-1,-2.959065E-1,-2.4746732E-1,-1.9101033E-1,-1.17125824E-1,-2.2518496E-1,-2.6245005E-2,-1.7212693E-1,-1.3619021E-2,-1.4993526E-1,1.1139074E-1,-4.867861E-2,1.3695486E-1,1.1981172E-2,9.354251E-2,2.2536449E-1,-2.8764257E-1,-2.5579652E-1,-2.1666971E-1,-2.6689175E-1,-2.3644264E-1,-2.0042804E-1,-2.705782E-1,-2.3856555E-1,-1.8882848E-1,-2.1979374E-1,-1.872769E-1,-1.5351501E-1,-2.5430882E-1,-2.3322561E-1,-1.8401933E-1,-2.1930104E-1,-1.7721301E-1,-1.4278077E-1,-2.1109526E-1,-1.7021815E-1,-1.5473193E-1,-1.853828E-1,-1.2924679E-1,-1.5649854E-1,-1.3701491E-1,-1.1659253E-1,-1.6094956E-1,-1.3550317E-1,-1.1764735E-1,-1.3334084E-1,-1.1784475E-1,-1.1087247E-1,-9.869084E-2,-1.03756554E-1,-9.843137E-2,-8.7487824E-2,-9.029515E-2,-7.2059974E-2,-8.013155E-2,-5.436779E-2,-5.8624435E-2,-3.0779582E-2,-8.611448E-2,-5.9921045E-2,-3.71665E-2,-2.9253005E-3,-7.438459E-2,-4.2636793E-2,-1.882658E-2,4.7329925E-3,-3.5686195E-2,-6.039978E-2,2.0680703E-2,4.217055E-2,-3.6643445E-2,-3.2619003E-3,2.4208413E-2,4.9114008E-2,-1.9320237E-2,1.4168715E-2,4.008571E-2,-6.188011E-3,6.418448E-2,8.2687184E-2],"categories":[],"categories_nodes":[],"categories_segments":[],"categories_sizes":[],"default_left":[0,0,0,0,0,0,0,0,0,0,0,0,0,0,0,0,0,0,0,0,0,0,0,0,0,0,0,0,0,0,0,0,0,0,0,0,0,0,0,0,0,0,0,0,0,0,0,0,0,0,0,0,0,0,0,0,0,0,0,0,0,0,0,0,0,0,0,0,0,0,0,0,0,0,0,0,0,0,0,0,0,0,0,0,0,0,0,0,0,0,0,0,0,0,0,0,0,0,0,0,0,0,0,0,0,0,0,0,0,0,0,0,0,0,0,0,0,0,0,0,0,0,0,0,0,0,0],"id":1,"left_children":[1,3,5,7,9,11,13,15,17,19,21,23,25,27,29,31,33,35,37,39,41,43,45,47,49,51,53,55,57,59,61,63,65,67,69,71,73,75,77,79,81,83,85,87,89,91,93,95,97,99,101,103,105,107,109,111,113,115,117,119,121,123,125,-1,-1,-1,-1,-1,-1,-1,-1,-1,-1,-1,-1,-1,-1,-1,-1,-1,-1,-1,-1,-1,-1,-1,-1,-1,-1,-1,-1,-1,-1,-1,-1,-1,-1,-1,-1,-1,-1,-1,-1,-1,-1,-1,-1,-1,-1,-1,-1,-1,-1,-1,-1,-1,-1,-1,-1,-1,-1,-1,-1,-1,-1,-1,-1],"loss_changes":[1.3886972E7,5.4597E5,6.017829E5,1.00514E5,6.18555E4,6.6054484E4,9.9156E4,1.6095E4,1.5753E4,9.37475E3,8.1341875E3,7.5598594E3,1.1034359E4,1.7129922E4,2.1055125E4,5.6575E3,7.207E3,2.0599688E3,1.62445E4,5.193375E3,2.31525E3,1.613875E3,1.1339844E3,5.944297E2,1.5197578E3,2.0847578E3,5.275789E3,3.0289321E3,1.9319016E4,5.174495E3,2.2053125E4,6.4565E3,3.0419688E3,1.3136406E3,7.42125E3,1.1646875E3,7.196875E2,9.3145E3,3.6398125E3,8.9210156E2,6.373125E3,2.7518125E3,3.8423438E2,2.291875E2,1.5191875E3,2.3626562E2,7.786719E1,2.6199219E1,8.08125E1,3.201172E2,8.4358203E2,2.297418E3,3.082705E2,5.38971E3,6.09062E2,1.1731569E3,3.247036E2,9.828453E3,2.3140825E3,1.2423594E3,1.4902621E3,6.297538E3,9.34375E3,0E0,0E0,0E0,0E0,0E0,0E0,0E0,0E0,0E0,0E0,0E0,0E0,0E0,0E0,0E0,0E0,0E0,0E0,0E0,0E0,0E0,0E0,0E0,0E0,0E0,0E0,0E0,0E0,0E0,0E0,0E0,0E0,0E0,0E0,0E0,0E0,0E0,0E0,0E0,0E0,0E0,0E0,0E0,0E0,0E0,0E0,0E0,0E0,0E0,0E0,0E0,0E0,0E0,0E0,0E0,0E0,0E0,0E0,0E0,0E0,0E0,0E0,0E0,0E0],"parents":[2147483647,0,0,1,1,2,2,3,3,4,4,5,5,6,6,7,7,8,8,9,9,10,10,11,11,12,12,13,13,14,14,15,15,16,16,17,17,18,18,19,19,20,20,21,21,22,22,23,23,24,24,25,25,26,26,27,27,28,28,29,29,30,30,31,31,32,32,33,33,34,34,35,35,36,36,37,37,38,38,39,39,40,40,41,41,42,42,43,43,44,44,45,45,46,46,47,47,48,48,49,49,50,50,51,51,52,52,53,53,54,54,55,55,56,56,57,57,58,58,59,59,60,60,61,61,62,62],"right_children":[2,4,6,8,10,12,14,16,18,20,22,24,26,28,30,32,34,36,38,40,42,44,46,48,50,52,54,56,58,60,62,64,66,68,70,72,74,76,78,80,82,84,86,88,90,92,94,96,98,100,102,104,106,108,110,112,114,116,118,120,122,124,126,-1,-1,-1,-1,-1,-1,-1,-1,-1,-1,-1,-1,-1,-1,-1,-1,-1,-1,-1,-1,-1,-1,-1,-1,-1,-1,-1,-1,-1,-1,-1,-1,-1,-1,-1,-1,-1,-1,-1,-1,-1,-1,-1,-1,-1,-1,-1,-1,-1,-1,-1,-1,-1,-1,-1,-1,-1,-1,-1,-1,-1,-1,-1,-1],"split_conditions":[0E0,-5.1790997E-2,4.386796E-2,-1.3037086E-1,-1.785869E-2,1.4268217E-2,9.932686E-2,-2.0035662E-1,-2.0475943E-1,-3.0193346E-2,-7.3378943E-3,4.307547E-3,2.5475446E-2,-5.9045777E-2,7.564415E-2,-1.5483733E-1,-2.865228E-1,-8.873525E-2,2.1369325E-2,-1.0678514E-1,9.9291824E-2,-1.0451724E-1,-2.992574E-3,1.2894807E-3,8.513585E-3,1.3002466E-1,1.5293305E-1,1.6802281E-1,1.7136963E-1,1.9352162E-1,7.887778E-2,-1.5477158E-1,-4.361493E-1,-9.738357E-2,-5.7283606E-2,-3.12775E-1,1.2113403E-1,-8.004838E-2,-1.6524276E-1,8.058815E-2,6.475665E-2,-9.096198E-2,-8.008946E-2,4.6921484E-2,7.248789E-2,-9.736293E-2,-1.5616654E-3,0E0,-7.80363E-2,-8.6597264E-2,-8.6597264E-2,-6.460532E-2,-2.3893403E-2,-5.9039317E-2,-1.46627575E-2,-1.5478864E-1,2.9247037E-1,6.4763725E-2,3.3980675E-2,-7.5998776E-2,-1.7240594E-1,2.4446686E-1,3.4928995E-1,-2.8764257E-1,-2.5579652E-1,-2.1666971E-1,-2.6689175E-1,-2.3644264E-1,-2.0042804E-1,-2.705782E-1,-2.3856555E-1,-1.8882848E-1,-2.1979374E-1,-1.872769E-1,-1.5351501E-1,-2.5430882E-1,-2.3322561E-1,-1.8401933E-1,-2.1930104E-1,-1.7721301E-1,-1.4278077E-1,-2.1109526E-1,-1.7021815E-1,-1.5473193E-1,-1.853828E-1,-1.2924679E-1,-1.5649854E-1,-1.3701491E-1,-1.1659253E-1,-1.6094956E-1,-1.3550317E-1,-1.1764735E-1,-1.3334084E-1,-1.1784475E-1,-1.1087247E-1,-9.869084E-2,-1.03756554E-1,-9.843137E-2,-8.7487824E-2,-9.029515E-2,-7.2059974E-2,-8.013155E-2,-5.436779E-2,-5.8624435E-2,-3.0779582E-2,-8.611448E-2,-5.9921045E-2,-3.71665E-2,-2.9253005E-3,-7.438459E-2,-4.2636793E-2,-1.882658E-2,4.7329925E-3,-3.5686195E-2,-6.039978E-2,2.0680703E-2,4.217055E-2,-3.6643445E-2,-3.2619003E-3,2.4208413E-2,4.9114008E-2,-1.9320237E-2,1.4168715E-2,4.008571E-2,-6.188011E-3,6.418448E-2,8.2687184E-2],"split_indices":[0,0,0,0,0,0,0,0,8,0,0,0,0,8,2,1,7,0,6,3,7,8,0,0,0,7,7,7,8,3,1,2,4,2,3,8,7,0,3,4,5,5,4,3,6,8,0,8,5,8,8,7,2,7,2,8,7,0,1,8,8,6,0,0,0,0,0,0,0,0,0,0,0,0,0,0,0,0,0,0,0,0,0,0,0,0,0,0,0,0,0,0,0,0,0,0,0,0,0,0,0,0,0,0,0,0,0,0,0,0,0,0,0,0,0,0,0,0,0,0,0,0,0,0,0,0,0],"split_type":[0,0,0,0,0,0,0,0,0,0,0,0,0,0,0,0,0,0,0,0,0,0,0,0,0,0,0,0,0,0,0,0,0,0,0,0,0,0,0,0,0,0,0,0,0,0,0,0,0,0,0,0,0,0,0,0,0,0,0,0,0,0,0,0,0,0,0,0,0,0,0,0,0,0,0,0,0,0,0,0,0,0,0,0,0,0,0,0,0,0,0,0,0,0,0,0,0,0,0,0,0,0,0,0,0,0,0,0,0,0,0,0,0,0,0,0,0,0,0,0,0,0,0,0,0,0,0],"sum_hessian":[7.168075E7,3.3952436E7,3.772832E7,2.473278E7,9.219657E6,8.904881E6,2.8823436E7,1.4684422E7,1.0048358E7,5.839196E6,3.380461E6,3.074707E6,5.830174E6,9.783537E6,1.90399E7,9.099058E6,5.585364E6,8.74454E5,9.173904E6,3.618705E6,2.220491E6,1.969987E6,1.410474E6,1.118366E6,1.956341E6,2.215891E6,3.614283E6,1.016141E6,8.767396E6,1.378781E6,1.766112E7,8.440544E6,6.58514E5,4.20397E5,5.164967E6,5.12915E5,3.61539E5,7.764701E6,1.409203E6,3.90775E5,3.22793E6,2.005067E6,2.15424E5,2.29186E5,1.740801E6,8.31568E5,5.78906E5,5.31311E5,5.87055E5,8.23249E5,1.133092E6,2.020042E6,1.95849E5,3.346546E6,2.67737E5,8.12213E5,2.03928E5,7.934224E6,8.33172E5,8.25256E5,5.53525E5,1.376358E6,1.6284761E7,7.822224E6,6.1832E5,1.37124E5,5.2139E5,2.86668E5,1.33729E5,4.399822E6,7.65145E5,1.581E5,3.54815E5,2.90876E5,7.0663E4,4.53652E6,3.228181E6,3.50248E5,1.058955E6,3.03569E5,8.7206E4,2.837385E6,3.90545E5,3.12297E5,1.69277E6,6.8156E4,1.47268E5,1.56874E5,7.2312E4,1.494867E6,2.45934E5,9.7947E4,7.33621E5,2.76184E5,3.02722E5,1.18908E5,4.12403E5,6.8877E4,5.18178E5,9.8424E4,7.24825E5,1.29092E5,1.004E6,3.16167E5,1.703875E6,5.708E4,1.38769E5,4.83609E5,2.862937E6,7.5908E4,1.91829E5,3.04023E5,5.0819E5,1.27236E5,7.6692E4,3.2318E6,4.702424E6,2.83077E5,5.50095E5,2.65997E5,5.59259E5,1.74779E5,3.78746E5,1.018749E6,3.57609E5,1.3270437E7,3.014324E6],"tree_param":{"num_deleted":"0","num_feature":"9","num_nodes":"127","size_leaf_vector":"0"}},{"base_weights":[-2.2679186E-1,-5.51579E-1,6.549035E-2,-6.168381E-1,-4.2827564E-1,-7.187252E-2,1.2332468E-1,-6.55846E-1,-5.782437E-1,-4.8136356E-1,-3.5062984E-1,-1.5869316E-1,-1.9818464E-2,8.680122E-2,1.6197114E-1,-6.613974E-1,-5.74053E-1,-4.7841755E-1,-5.8823943E-1,-4.932123E-1,-3.8852823E-1,-3.906518E-1,-3.0538252E-1,-2.0893942E-1,-1.2535277E-1,-9.439892E-3,-1.2150538E-1,9.657733E-2,-3.9039586E-2,9.505526E-2,1.6851994E-1,-6.6809934E-1,-5.785034E-1,-4.2423522E-1,-5.930836E-1,-5.156675E-1,-4.2188916E-1,-6.030118E-1,-5.0208104E-1,-3.929975E-1,-5.085427E-1,-4.1412374E-1,-3.4171736E-1,-3.1657377E-1,-4.00122E-1,-3.3000058E-1,-2.8137273E-1,-2.3196767E-1,-1.872741E-1,-1.1707644E-1,-1.9504488E-1,-9.5417626E-2,5.6528053E-3,-1.7762393E-1,-9.373706E-2,4.4185412E-4,1.11698955E-1,-9.2301875E-2,-8.30805E-3,1.3305661E-1,3.275547E-2,9.290925E-2,1.7626722E-1,-2.2003399E-1,-1.9956781E-1,-1.2362975E-1,-1.7845678E-1,-1.4510253E-1,-1.0279541E-1,-1.8435884E-1,-1.567741E-1,-1.6071963E-1,-1.3332684E-1,-1.07536145E-1,-1.3101551E-1,-1.83749E-1,-1.6272442E-1,-1.221753E-1,-1.5721728E-1,-1.2703471E-1,-9.700722E-2,-1.6033593E-1,-1.4299092E-1,-1.1015404E-1,-1.316987E-1,-8.691807E-2,-1.0940589E-1,-1.0233882E-1,-8.369711E-2,-1.236547E-1,-9.7007155E-2,-8.392714E-2,-1.0102874E-1,-8.907749E-2,-7.993942E-2,-7.183623E-2,-6.531047E-2,-5.474385E-2,-6.897038E-2,-5.497727E-2,-3.17285E-2,-7.0875585E-2,-5.1740542E-2,-2.1487385E-2,-5.0929934E-2,-8.263646E-3,1.0545348E-2,-4.6893913E-2,-6.8181455E-2,-2.1203183E-2,-4.2113464E-2,7.389875E-3,-2.4289919E-2,9.633872E-3,3.621619E-2,-5.1696155E-2,-2.321876E-2,7.1072434E-3,-1.253499E-2,-2.401161E-2,4.0682282E-2,-2.0612352E-2,1.4745883E-2,4.0702157E-2,7.683166E-3,5.109267E-2,6.262551E-2],"categories":[],"categories_nodes":[],"categories_segments":[],"categories_sizes":[],"default_left":[0,0,0,0,0,0,0,0,0,0,0,0,0,0,0,0,0,0,0,0,0,0,0,0,0,0,0,0,0,0,0,0,0,0,0,0,0,0,0,0,0,0,0,0,0,0,0,0,0,0,0,0,0,0,0,0,0,0,0,0,0,0,0,0,0,0,0,0,0,0,0,0,0,0,0,0,0,0,0,0,0,0,0,0,0,0,0,0,0,0,0,0,0,0,0,0,0,0,0,0,0,0,0,0,0,0,0,0,0,0,0,0,0,0,0,0,0,0,0,0,0,0,0,0,0,0,0],"id":2,"left_children":[1,3,5,7,9,11,13,15,17,19,21,23,25,27,29,31,33,35,37,39,41,43,45,47,49,51,53,55,57,59,61,63,65,67,69,71,73,75,77,79,81,83,85,87,89,91,93,95,97,99,101,103,105,107,109,111,113,115,117,119,121,123,125,-1,-1,-1,-1,-1,-1,-1,-1,-1,-1,-1,-1,-1,-1,-1,-1,-1,-1,-1,-1,-1,-1,-1,-1,-1,-1,-1,-1,-1,-1,-1,-1,-1,-1,-1,-1,-1,-1,-1,-1,-1,-1,-1,-1,-1,-1,-1,-1,-1,-1,-1,-1,-1,-1,-1,-1,-1,-1,-1,-1,-1,-1,-1,-1],"loss_changes":[6.804618E6,2.73204E5,2.9972472E5,3.3424E4,4.843575E4,5.0519285E4,3.747522E4,5.0135E3,1.1136E4,7.676625E3,8.64075E3,7.0191484E3,7.375342E3,1.679254E4,5.6530312E3,5.744E3,2.0006562E3,2.1386875E3,1.291075E4,9.508E3,9.463047E2,1.7761562E3,1.3236719E3,8.3377344E2,1.4527539E3,8.228596E3,1.008542E3,1.8412766E4,1.6105908E3,2.7224502E3,6.8829062E3,1.7955E3,2.1044531E3,3.8342578E2,9.412031E2,8.7503125E2,3.7939844E2,4.977E3,3.0940625E3,1.7412344E3,4.43725E3,5.9610156E2,3.3335547E2,2.647793E2,2.0783125E3,3.7559375E2,2.6279688E2,8.647266E1,1.7595508E2,1.6858477E3,2.4868555E2,1.675081E3,5.282607E3,2.2663672E2,4.656665E2,3.3902454E3,7.8580625E3,4.293955E2,6.6836487E2,3.882881E2,7.248655E2,3.1429297E3,2.0629062E3,0E0,0E0,0E0,0E0,0E0,0E0,0E0,0E0,0E0,0E0,0E0,0E0,0E0,0E0,0E0,0E0,0E0,0E0,0E0,0E0,0E0,0E0,0E0,0E0,0E0,0E0,0E0,0E0,0E0,0E0,0E0,0E0,0E0,0E0,0E0,0E0,0E0,0E0,0E0,0E0,0E0,0E0,0E0,0E0,0E0,0E0,0E0,0E0,0E0,0E0,0E0,0E0,0E0,0E0,0E0,0E0,0E0,0E0,0E0,0E0,0E0,0E0,0E0,0E0],"parents":[2147483647,0,0,1,1,2,2,3,3,4,4,5,5,6,6,7,7,8,8,9,9,10,10,11,11,12,12,13,13,14,14,15,15,16,16,17,17,18,18,19,19,20,20,21,21,22,22,23,23,24,24,25,25,26,26,27,27,28,28,29,29,30,30,31,31,32,32,33,33,34,34,35,35,36,36,37,37,38,38,39,39,40,40,41,41,42,42,43,43,44,44,45,45,46,46,47,47,48,48,49,49,50,50,51,51,52,52,53,53,54,54,55,55,56,56,57,57,58,58,59,59,60,60,61,61,62,62],"right_children":[2,4,6,8,10,12,14,16,18,20,22,24,26,28,30,32,34,36,38,40,42,44,46,48,50,52,54,56,58,60,62,64,66,68,70,72,74,76,78,80,82,84,86,88,90,92,94,96,98,100,102,104,106,108,110,112,114,116,118,120,122,124,126,-1,-1,-1,-1,-1,-1,-1,-1,-1,-1,-1,-1,-1,-1,-1,-1,-1,-1,-1,-1,-1,-1,-1,-1,-1,-1,-1,-1,-1,-1,-1,-1,-1,-1,-1,-1,-1,-1,-1,-1,-1,-1,-1,-1,-1,-1,-1,-1,-1,-1,-1,-1,-1,-1,-1,-1,-1,-1,-1,-1,-1,-1,-1,-1],"split_conditions":[0E0,-6.839094E-2,5.5740263E-2,-1.7250463E-1,-2.5522228E-2,1.9912308E-2,1.4735003E-1,-1.24802455E-1,-2.2908747E-1,7.726033E-2,-1.1726683E-2,7.133033E-3,1.3963462E-1,2.1118453E-1,1.2320754E-1,-1.3611463E-1,-5.0380605E-1,-1.16815E-1,3.8133584E-2,-1.2478861E-1,1.7136963E-1,-9.9658296E-2,-5.88608E-3,2.7256922E-3,1.0118356E-1,-4.1686557E-2,2.9064305E-3,-3.3469338E-2,6.0167056E-2,2.5109702E-1,1.254457E-1,-7.9437053E-1,-5.0424933E-1,2.3220937E-1,1.8190494E-1,3.972053E-2,-3.7425864E-1,-3.3468354E-2,-2.1869235E-1,2.9064305E-3,-4.3358155E-2,-7.8313984E-2,-1.0445846E-1,1.569719E-2,4.9830526E-2,-7.007205E-2,-2.992574E-3,1.2894807E-3,7.727923E-2,-6.2494736E-2,-2.2300469E-2,1.08773135E-1,3.6693264E-2,2.6605383E-1,2.159392E-1,1.6163918E-1,-2.7055537E-2,-2.5166962E-1,2.661385E-1,-3.4620547E-1,-3.4651157E-1,2.5830927E-1,4.4048792E-1,-2.2003399E-1,-1.9956781E-1,-1.2362975E-1,-1.7845678E-1,-1.4510253E-1,-1.0279541E-1,-1.8435884E-1,-1.567741E-1,-1.6071963E-1,-1.3332684E-1,-1.07536145E-1,-1.3101551E-1,-1.83749E-1,-1.6272442E-1,-1.221753E-1,-1.5721728E-1,-1.2703471E-1,-9.700722E-2,-1.6033593E-1,-1.4299092E-1,-1.1015404E-1,-1.316987E-1,-8.691807E-2,-1.0940589E-1,-1.0233882E-1,-8.369711E-2,-1.236547E-1,-9.7007155E-2,-8.392714E-2,-1.0102874E-1,-8.907749E-2,-7.993942E-2,-7.183623E-2,-6.531047E-2,-5.474385E-2,-6.897038E-2,-5.497727E-2,-3.17285E-2,-7.0875585E-2,-5.1740542E-2,-2.1487385E-2,-5.0929934E-2,-8.263646E-3,1.0545348E-2,-4.6893913E-2,-6.8181455E-2,-2.1203183E-2,-4.2113464E-2,7.389875E-3,-2.4289919E-2,9.633872E-3,3.621619E-2,-5.1696155E-2,-2.321876E-2,7.1072434E-3,-1.253499E-2,-2.401161E-2,4.0682282E-2,-2.0612352E-2,1.4745883E-2,4.0702157E-2,7.683166E-3,5.109267E-2,6.262551E-2],"split_indices":[0,0,0,0,0,0,0,2,7,8,0,0,8,7,2,1,5,0,7,6,8,6,0,0,6,6,1,7,2,3,1,0,8,8,8,8,5,4,4,1,0,7,1,1,4,3,0,0,4,6,1,3,0,6,8,4,8,8,7,2,8,4,0,0,0,0,0,0,0,0,0,0,0,0,0,0,0,0,0,0,0,0,0,0,0,0,0,0,0,0,0,0,0,0,0,0,0,0,0,0,0,0,0,0,0,0,0,0,0,0,0,0,0,0,0,0,0,0,0,0,0,0,0,0,0,0,0],"split_type":[0,0,0,0,0,0,0,0,0,0,0,0,0,0,0,0,0,0,0,0,0,0,0,0,0,0,0,0,0,0,0,0,0,0,0,0,0,0,0,0,0,0,0,0,0,0,0,0,0,0,0,0,0,0,0,0,0,0,0,0,0,0,0,0,0,0,0,0,0,0,0,0,0,0,0,0,0,0,0,0,0,0,0,0,0,0,0,0,0,0,0,0,0,0,0,0,0,0,0,0,0,0,0,0,0,0,0,0,0,0,0,0,0,0,0,0,0,0,0,0,0,0,0,0,0,0,0],"sum_hessian":[7.168075E7,3.3952436E7,3.772832E7,2.2201928E7,1.175051E7,1.1178398E7,2.654992E7,1.1041803E7,1.1160124E7,6.9789E6,4.77161E6,4.18997E6,6.988428E6,1.3649884E7,1.2900036E7,1.0340006E7,7.01797E5,1.015776E6,1.0144348E7,6.188983E6,7.89917E5,2.532005E6,2.239605E6,1.671261E6,2.518709E6,6.341219E6,6.47209E5,1.2665916E7,9.83968E5,1.149939E6,1.1750097E7,9.566548E6,7.73458E5,7.9101E4,6.22696E5,6.12292E5,4.03484E5,8.659604E6,1.484744E6,8.21149E5,5.367834E6,5.10678E5,2.79239E5,2.87007E5,2.244998E6,1.105789E6,1.133816E6,8.10143E5,8.61118E5,2.251351E6,2.67358E5,9.46924E5,5.394295E6,2.14238E5,4.32971E5,1.721501E6,1.0944415E7,3.60012E5,6.23956E5,7.14258E5,4.35681E5,1.092053E6,1.0658044E7,4.02921E5,9.163627E6,6.9209E4,7.04249E5,4.5758E4,3.3343E4,4.77455E5,1.45241E5,4.7774E5,1.34552E5,7.6455E4,3.27029E5,7.487604E6,1.172E6,2.7935E5,1.205394E6,5.71322E5,2.49827E5,2.962246E6,2.405588E6,1.76869E5,3.33809E5,8.5568E4,1.93671E5,1.73585E5,1.13422E5,1.940177E6,3.04821E5,1.31172E5,9.74617E5,5.5491E5,5.78906E5,5.31311E5,2.78832E5,7.74059E5,8.7059E4,3.28706E5,1.922645E6,9.4629E4,1.72729E5,7.17358E5,2.29566E5,2.53798E6,2.856315E6,1.49899E5,6.4339E4,2.89729E5,1.43242E5,1.327134E6,3.94367E5,1.114315E6,9.8301E6,5.6531E4,3.03481E5,3.19013E5,3.04943E5,8.449E3,7.05809E5,6.0614E4,3.75067E5,6.6774E5,4.24313E5,9.006137E6,1.651907E6],"tree_param":{"num_deleted":"0","num_feature":"9","num_nodes":"127","size_leaf_vector":"0"}},{"base_weights":[-1.5875436E-1,-3.8610542E-1,4.5843218E-2,-4.3457466E-1,-3.0384174E-1,-4.469997E-2,8.958626E-2,-4.4985467E-1,-3.911428E-1,-3.3783302E-1,-2.4184531E-1,-1.05939195E-1,-6.2262104E-3,6.0810797E-2,1.1102517E-1,-4.553375E-1,-3.8056388E-1,-3.0862018E-1,-4.029855E-1,-2.619159E-1,-3.4870705E-1,-2.6747015E-1,-2.0923784E-1,-1.3880701E-1,-7.692511E-2,-8.7425895E-2,3.3640785E-3,6.885204E-2,-5.0369434E-2,6.462025E-2,1.18356414E-1,-4.6154594E-1,-3.8006198E-1,-3.377225E-1,-4.2456442E-1,-3.2218212E-1,-2.2102882E-1,-3.1912217E-1,-4.1752E-1,-2.3386243E-1,-2.855067E-1,-3.6367404E-1,-2.7198538E-1,-2.0987353E-1,-2.7521574E-1,-2.2245839E-1,-1.9213146E-1,-1.5660208E-1,-1.20795876E-1,-7.052829E-2,-1.4644307E-1,-6.1103504E-2,-1.3871847E-1,1.4674903E-2,-8.697492E-2,7.8305155E-2,-1.7419426E-2,-2.4667604E-2,-1.0403301E-1,8.780942E-2,1.7438695E-2,5.7440087E-2,1.2663437E-1,-1.3996951E-1,-1.299983E-1,-9.889878E-2,-1.255087E-1,-1.0658831E-1,-7.17064E-2,-1.4841501E-1,-1.2518413E-1,-8.268763E-2,-1.0159346E-1,-4.18741E-2,-7.27517E-2,-1.0483801E-1,-8.869531E-2,-1.28352E-1,-1.1055892E-1,-7.5731136E-2,-6.2265545E-2,-9.065909E-2,-7.734328E-2,-1.1616417E-1,-1.0068152E-1,-6.310869E-2,-8.7437645E-2,-6.924842E-2,-5.4161225E-2,-8.5792534E-2,-6.431286E-2,-6.845358E-2,-5.1854145E-2,-5.9837073E-2,-5.3629085E-2,-5.028541E-2,-4.3989576E-2,-3.4602653E-2,-5.076757E-2,-3.9054386E-2,-1.8250747E-2,-5.618917E-2,-3.8513068E-2,-3.3241887E-2,-1.3895147E-2,-5.9145197E-2,-3.6034852E-2,-1.182316E-2,6.8926704E-3,-1.884458E-2,-4.373689E-2,-5.3600525E-4,2.5823591E-2,-1.7996281E-2,4.029305E-3,-1.5190776E-2,-2.7784046E-3,-2.5327874E-2,-4.536409E-2,1.9420752E-2,3.8930826E-2,-4.1273497E-3,2.8405178E-2,2.3783196E-2,-1.1947132E-2,3.6541417E-2,4.6034597E-2],"categories":[],"categories_nodes":[],"categories_segments":[],"categories_sizes":[],"default_left":[0,0,0,0,0,0,0,0,0,0,0,0,0,0,0,0,0,0,0,0,0,0,0,0,0,0,0,0,0,0,0,0,0,0,0,0,0,0,0,0,0,0,0,0,0,0,0,0,0,0,0,0,0,0,0,0,0,0,0,0,0,0,0,0,0,0,0,0,0,0,0,0,0,0,0,0,0,0,0,0,0,0,0,0,0,0,0,0,0,0,0,0,0,0,0,0,0,0,0,0,0,0,0,0,0,0,0,0,0,0,0,0,0,0,0,0,0,0,0,0,0,0,0,0,0,0,0],"id":3,"left_children":[1,3,5,7,9,11,13,15,17,19,21,23,25,27,29,31,33,35,37,39,41,43,45,47,49,51,53,55,57,59,61,63,65,67,69,71,73,75,77,79,81,83,85,87,89,91,93,95,97,99,101,103,105,107,109,111,113,115,117,119,121,123,125,-1,-1,-1,-1,-1,-1,-1,-1,-1,-1,-1,-1,-1,-1,-1,-1,-1,-1,-1,-1,-1,-1,-1,-1,-1,-1,-1,-1,-1,-1,-1,-1,-1,-1,-1,-1,-1,-1,-1,-1,-1,-1,-1,-1,-1,-1,-1,-1,-1,-1,-1,-1,-1,-1,-1,-1,-1,-1,-1,-1,-1,-1,-1,-1],"loss_changes":[3.3342645E6,1.35377E5,1.494281E5,1.41785E4,2.652675E4,2.895605E4,1.5693391E4,6.004E3,5.433875E3,6.7116875E3,3.7245625E3,4.5220586E3,5.877722E3,9.709957E3,4.959375E3,6.84425E3,2.1843594E3,8.2885156E2,5.9266875E3,6.740703E2,8.1660625E3,1.1134844E3,4.435703E2,7.1258203E2,1.1200088E3,1.0764482E3,6.8977773E3,8.260035E3,1.0103644E3,2.1759775E3,6.348047E3,1.916E3,2.1538594E3,1.01828906E3,2.919297E2,4.6303516E2,1.6362646E2,5.1133594E2,2.095125E3,2.2734961E2,2.5569531E2,3.93175E3,1.3930078E3,1.8184668E2,1.4401875E3,3.1395312E2,8.3703125E1,1.2280859E2,2.918203E2,1.3335244E3,1.566167E2,3.8722485E2,2.9388623E2,2.6934043E3,1.067333E3,5.683125E3,1.313525E3,1.9816403E2,2.1943823E2,1.2909971E3,1.5793176E3,3.1987954E3,1.4352344E3,0E0,0E0,0E0,0E0,0E0,0E0,0E0,0E0,0E0,0E0,0E0,0E0,0E0,0E0,0E0,0E0,0E0,0E0,0E0,0E0,0E0,0E0,0E0,0E0,0E0,0E0,0E0,0E0,0E0,0E0,0E0,0E0,0E0,0E0,0E0,0E0,0E0,0E0,0E0,0E0,0E0,0E0,0E0,0E0,0E0,0E0,0E0,0E0,0E0,0E0,0E0,0E0,0E0,0E0,0E0,0E0,0E0,0E0,0E0,0E0,0E0,0E0,0E0,0E0],"parents":[2147483647,0,0,1,1,2,2,3,3,4,4,5,5,6,6,7,7,8,8,9,9,10,10,11,11,12,12,13,13,14,14,15,15,16,16,17,17,18,18,19,19,20,20,21,21,22,22,23,23,24,24,25,25,26,26,27,27,28,28,29,29,30,30,31,31,32,32,33,33,34,34,35,35,36,36,37,37,38,38,39,39,40,40,41,41,42,42,43,43,44,44,45,45,46,46,47,47,48,48,49,49,50,50,51,51,52,52,53,53,54,54,55,55,56,56,57,57,58,58,59,59,60,60,61,61,62,62],"right_children":[2,4,6,8,10,12,14,16,18,20,22,24,26,28,30,32,34,36,38,40,42,44,46,48,50,52,54,56,58,60,62,64,66,68,70,72,74,76,78,80,82,84,86,88,90,92,94,96,98,100,102,104,106,108,110,112,114,116,118,120,122,124,126,-1,-1,-1,-1,-1,-1,-1,-1,-1,-1,-1,-1,-1,-1,-1,-1,-1,-1,-1,-1,-1,-1,-1,-1,-1,-1,-1,-1,-1,-1,-1,-1,-1,-1,-1,-1,-1,-1,-1,-1,-1,-1,-1,-1,-1,-1,-1,-1,-1,-1,-1,-1,-1,-1,-1,-1,-1,-1,-1,-1,-1,-1,-1,-1],"split_conditions":[0E0,-7.4229605E-2,6.1688866E-2,-1.1940233E-1,-2.377721E-2,2.2704959E-2,1.322573E-1,-9.288414E-2,-1.5814024E-1,-1.3324082E-1,-1.0248396E-2,9.945364E-3,-2.9835675E-3,2.1105927E-1,-1.0365003E-2,-9.520831E-2,-2.0032431E-1,9.56851E-2,-1.6523147E-1,-2.0033655E-1,5.8722608E-2,-7.8012526E-2,-4.43512E-3,4.307547E-3,9.56851E-2,9.2133835E-2,1.2547226E-1,1.7821603E-1,3.2362753E-1,2.3213355E-1,-4.438952E-3,-3.3470403E-2,-2.3426986E-1,3.122446E-1,-2.3991606E-1,-2.7143267E-1,-2.94537E-1,-7.828227E-2,1.7132195E-2,-1.0318337E-2,1.3638372E-3,-4.506682E-2,-9.538363E-2,2.1324478E-2,6.615882E-2,1.0298085E-1,-1.5616654E-3,1.2894807E-3,1.127649E-1,-1.9205928E-2,-4.5061376E-2,-1.3908474E-1,-1.877172E-1,-3.839671E-2,2.1607684E-1,-6.651956E-2,2.4186151E-2,2.8265221E-2,3.3616734E-1,2.5110048E-1,2.6583192E-1,4.1801536E-1,3.9861542E-1,-1.3996951E-1,-1.299983E-1,-9.889878E-2,-1.255087E-1,-1.0658831E-1,-7.17064E-2,-1.4841501E-1,-1.2518413E-1,-8.268763E-2,-1.0159346E-1,-4.18741E-2,-7.27517E-2,-1.0483801E-1,-8.869531E-2,-1.28352E-1,-1.1055892E-1,-7.5731136E-2,-6.2265545E-2,-9.065909E-2,-7.734328E-2,-1.1616417E-1,-1.0068152E-1,-6.310869E-2,-8.7437645E-2,-6.924842E-2,-5.4161225E-2,-8.5792534E-2,-6.431286E-2,-6.845358E-2,-5.1854145E-2,-5.9837073E-2,-5.3629085E-2,-5.028541E-2,-4.3989576E-2,-3.4602653E-2,-5.076757E-2,-3.9054386E-2,-1.8250747E-2,-5.618917E-2,-3.8513068E-2,-3.3241887E-2,-1.3895147E-2,-5.9145197E-2,-3.6034852E-2,-1.182316E-2,6.8926704E-3,-1.884458E-2,-4.373689E-2,-5.3600525E-4,2.5823591E-2,-1.7996281E-2,4.029305E-3,-1.5190776E-2,-2.7784046E-3,-2.5327874E-2,-4.536409E-2,1.9420752E-2,3.8930826E-2,-4.1273497E-3,2.8405178E-2,2.3783196E-2,-1.1947132E-2,3.6541417E-2,4.6034597E-2],"split_indices":[0,0,0,0,0,0,0,2,4,7,0,0,1,8,8,1,3,3,7,7,7,3,0,0,3,2,5,7,8,7,7,8,4,8,0,8,2,2,7,2,8,0,2,2,5,7,0,0,7,1,2,7,3,7,5,7,8,7,4,0,2,8,0,0,0,0,0,0,0,0,0,0,0,0,0,0,0,0,0,0,0,0,0,0,0,0,0,0,0,0,0,0,0,0,0,0,0,0,0,0,0,0,0,0,0,0,0,0,0,0,0,0,0,0,0,0,0,0,0,0,0,0,0,0,0,0,0],"split_type":[0,0,0,0,0,0,0,0,0,0,0,0,0,0,0,0,0,0,0,0,0,0,0,0,0,0,0,0,0,0,0,0,0,0,0,0,0,0,0,0,0,0,0,0,0,0,0,0,0,0,0,0,0,0,0,0,0,0,0,0,0,0,0,0,0,0,0,0,0,0,0,0,0,0,0,0,0,0,0,0,0,0,0,0,0,0,0,0,0,0,0,0,0,0,0,0,0,0,0,0,0,0,0,0,0,0,0,0,0,0,0,0,0,0,0,0,0,0,0,0,0,0,0,0,0,0,0],"sum_hessian":[7.168075E7,3.3952436E7,3.772832E7,2.136457E7,1.2587867E7,1.2289804E7,2.5438514E7,1.5804342E7,5.560228E6,8.130233E6,4.457634E6,4.741959E6,7.547845E6,1.0860917E7,1.4577597E7,1.4645475E7,1.158867E6,6.97804E5,4.862424E6,1.018636E6,7.111597E6,2.496071E6,1.961563E6,2.223324E6,2.518635E6,7.9729E5,6.750555E6,1.0128371E7,7.32546E5,1.988827E6,1.258877E7,1.3529596E7,1.115879E6,5.87172E5,5.71695E5,6.04245E5,9.3559E4,7.18239E5,4.144185E6,4.65312E5,5.53324E5,5.950717E6,1.16088E6,2.95885E5,2.200186E6,1.106443E6,8.5512E5,1.118366E6,1.104958E6,2.306409E6,2.12226E5,5.26898E5,2.70392E5,5.999405E6,7.5115E5,9.128161E6,1.00021E6,4.95318E5,2.37228E5,1.333451E6,6.55376E5,1.506041E6,1.1082729E7,1.1486525E7,2.043071E6,4.81838E5,6.34041E5,4.98433E5,8.8739E4,5.377E4,5.17925E5,1.57853E5,4.46392E5,1.9524E4,7.4035E4,3.13285E5,4.04954E5,3.42309E6,7.21095E5,2.72749E5,1.92563E5,3.45254E5,2.0807E5,3.236466E6,2.714251E6,2.78761E5,8.82119E5,1.72595E5,1.2329E5,1.869555E6,3.30631E5,9.92055E5,1.14388E5,5.52398E5,3.02722E5,5.31311E5,5.87055E5,9.93124E5,1.11834E5,3.22367E5,1.984042E6,6.507E4,1.47156E5,1.20808E5,4.0609E5,6.5292E4,2.051E5,7.98239E5,5.201166E6,5.32439E5,2.18711E5,8.07572E5,8.320589E6,4.20287E5,5.79923E5,1.84436E5,3.10882E5,1.67587E5,6.9641E4,8.60351E5,4.731E5,4.66838E5,1.88538E5,1.229908E6,2.76133E5,9.391232E6,1.691497E6],"tree_param":{"num_deleted":"0","num_feature":"9","num_nodes":"127","size_leaf_vector":"0"}},{"base_weights":[-1.111281E-1,-2.7027386E-1,3.209024E-2,-3.0824554E-1,-2.1789032E-1,-5.4405816E-2,5.56627E-2,-3.261549E-1,-2.9100844E-1,-2.4377407E-1,-1.744187E-1,-9.226105E-2,-3.4604665E-2,1.7567718E-2,7.208812E-2,-2.74805E-1,-3.3043343E-1,-2.1023269E-1,-2.9876572E-1,-1.834329E-1,-2.5366807E-1,-1.9552794E-1,-1.508508E-1,-1.0962155E-1,-8.054072E-2,-2.6697198E-2,-9.298451E-2,2.6081374E-2,-5.4060176E-2,2.6910895E-2,7.732279E-2,-3.4044918E-1,-1.5529576E-1,-2.476251E-1,-3.3488762E-1,-1.279343E-1,-2.2231495E-1,-2.2248225E-1,-3.0548662E-1,-1.990612E-1,-1.518245E-1,-2.6594934E-1,-1.8854073E-1,-1.5059629E-1,-2.0494923E-1,-1.1499019E-1,-1.5541582E-1,-1.14259064E-1,-9.74318E-2,-1.2351534E-1,-7.449949E-2,-7.719447E-2,-1.4003801E-2,-7.670065E-2,-1.1905533E-1,3.4934983E-2,-5.3258616E-2,-1.1855044E-1,-4.3647792E-2,5.974969E-4,5.7097517E-2,3.2793123E-2,8.324977E-2,-1.139077E-1,-9.071963E-2,-2.1903643E-2,-5.90002E-2,-9.635564E-2,-4.834777E-2,-1.07756935E-1,-9.64328E-2,-3.1286556E-2,-7.0727386E-2,-7.204576E-2,-5.990011E-2,-3.930301E-2,-7.068958E-2,-9.339635E-2,-7.873083E-2,-5.557614E-2,-6.6113956E-2,-2.623575E-2,-4.8401453E-2,-6.288846E-2,-8.236562E-2,-4.7878742E-2,-6.490737E-2,-5.0221913E-2,-3.7175078E-2,-6.505973E-2,-4.398976E-2,-3.7853044E-2,-2.773294E-2,-4.856697E-2,-3.724982E-2,-3.5400115E-2,-3.210209E-2,-4.0166758E-2,-2.7695142E-2,-3.151847E-2,-4.300979E-2,-2.0115746E-2,-3.4533907E-2,-1.7750524E-2,-3.382544E-2,-1.8450992E-2,-2.4750596E-3,-3.0854506E-2,-1.7486338E-2,-3.281292E-2,-4.280983E-2,-9.054208E-3,1.2111961E-2,-3.74252E-2,-1.1598205E-2,-4.8788596E-2,-3.1329896E-2,-9.717809E-3,-2.6499556E-2,5.9539364E-3,-2.0529486E-2,2.2275101E-2,-3.1351317E-3,1.5980221E-2,-8.006368E-3,2.1842288E-2,2.8564692E-2],"categories":[],"categories_nodes":[],"categories_segments":[],"categories_sizes":[],"default_left":[0,0,0,0,0,0,0,0,0,0,0,0,0,0,0,0,0,0,0,0,0,0,0,0,0,0,0,0,0,0,0,0,0,0,0,0,0,0,0,0,0,0,0,0,0,0,0,0,0,0,0,0,0,0,0,0,0,0,0,0,0,0,0,0,0,0,0,0,0,0,0,0,0,0,0,0,0,0,0,0,0,0,0,0,0,0,0,0,0,0,0,0,0,0,0,0,0,0,0,0,0,0,0,0,0,0,0,0,0,0,0,0,0,0,0,0,0,0,0,0,0,0,0,0,0,0,0],"id":4,"left_children":[1,3,5,7,9,11,13,15,17,19,21,23,25,27,29,31,33,35,37,39,41,43,45,47,49,51,53,55,57,59,61,63,65,67,69,71,73,75,77,79,81,83,85,87,89,91,93,95,97,99,101,103,105,107,109,111,113,115,117,119,121,123,125,-1,-1,-1,-1,-1,-1,-1,-1,-1,-1,-1,-1,-1,-1,-1,-1,-1,-1,-1,-1,-1,-1,-1,-1,-1,-1,-1,-1,-1,-1,-1,-1,-1,-1,-1,-1,-1,-1,-1,-1,-1,-1,-1,-1,-1,-1,-1,-1,-1,-1,-1,-1,-1,-1,-1,-1,-1,-1,-1,-1,-1,-1,-1,-1],"loss_changes":[1.6337902E6,6.75345E4,7.69252E4,6.0765E3,1.6055E4,6.0565527E3,1.8551758E4,2.1209375E3,6.2848125E3,5.3393125E3,2.6491875E3,5.646074E2,2.4489941E3,5.446991E3,4.899117E3,5.8249336E3,3.28675E3,8.738633E2,4.691875E3,6.223203E2,6.1455938E3,1.1890859E3,4.1186328E2,6.3210938E1,4.3006738E2,2.9947886E3,2.6865332E2,5.6078354E3,6.3717334E2,1.7086641E3,4.8998047E3,7.1551953E2,8.9613477E2,2.893086E3,2.7629375E3,2.8682825E2,3.0953906E2,8.912617E2,2.112375E3,2.4810938E2,2.5525781E2,3.132125E3,9.814883E2,2.1835059E2,1.6137031E3,7.165088E1,4.5152734E2,2.1967773E1,5.746118E1,7.477661E1,4.3926807E2,6.015425E2,1.0203858E3,1.8753906E2,5.5664307E1,2.5432002E3,8.3639746E2,8.206506E1,4.1087854E2,1.5271138E3,1.1607576E3,2.6558206E3,2.0471953E3,0E0,0E0,0E0,0E0,0E0,0E0,0E0,0E0,0E0,0E0,0E0,0E0,0E0,0E0,0E0,0E0,0E0,0E0,0E0,0E0,0E0,0E0,0E0,0E0,0E0,0E0,0E0,0E0,0E0,0E0,0E0,0E0,0E0,0E0,0E0,0E0,0E0,0E0,0E0,0E0,0E0,0E0,0E0,0E0,0E0,0E0,0E0,0E0,0E0,0E0,0E0,0E0,0E0,0E0,0E0,0E0,0E0,0E0,0E0,0E0,0E0,0E0,0E0,0E0],"parents":[2147483647,0,0,1,1,2,2,3,3,4,4,5,5,6,6,7,7,8,8,9,9,10,10,11,11,12,12,13,13,14,14,15,15,16,16,17,17,18,18,19,19,20,20,21,21,22,22,23,23,24,24,25,25,26,26,27,27,28,28,29,29,30,30,31,31,32,32,33,33,34,34,35,35,36,36,37,37,38,38,39,39,40,40,41,41,42,42,43,43,44,44,45,45,46,46,47,47,48,48,49,49,50,50,51,51,52,52,53,53,54,54,55,55,56,56,57,57,58,58,59,59,60,60,61,61,62,62],"right_children":[2,4,6,8,10,12,14,16,18,20,22,24,26,28,30,32,34,36,38,40,42,44,46,48,50,52,54,56,58,60,62,64,66,68,70,72,74,76,78,80,82,84,86,88,90,92,94,96,98,100,102,104,106,108,110,112,114,116,118,120,122,124,126,-1,-1,-1,-1,-1,-1,-1,-1,-1,-1,-1,-1,-1,-1,-1,-1,-1,-1,-1,-1,-1,-1,-1,-1,-1,-1,-1,-1,-1,-1,-1,-1,-1,-1,-1,-1,-1,-1,-1,-1,-1,-1,-1,-1,-1,-1,-1,-1,-1,-1,-1,-1,-1,-1,-1,-1,-1,-1,-1,-1,-1,-1,-1,-1],"split_conditions":[0E0,-8.659907E-2,3.9633654E-2,-1.9193529E-1,-2.8635127E-2,1.2749661E-2,8.8714905E-2,-5.569079E-1,-2.5166962E-1,-1.3321868E-1,-1.3200647E-2,4.307547E-3,1.1484089E-1,1.2763456E-1,-5.017471E-2,-4.6575746E-1,-5.559977E-1,-4.6637738E-1,-2.2910985E-1,-2.0887475E-2,1.5665805E-2,-8.423138E-2,-7.034688E-2,2.7256922E-3,-5.1956277E-2,-4.5040205E-2,1.8560158E-1,1.3002531E-1,-1.4209035E-1,1.9341427E-1,1.5717315E-2,-7.76946E-1,-7.7482283E-1,-4.1227806E-1,-3.123389E-1,-1.3615645E-1,-6.460532E-2,-4.3605083E-1,-6.838304E-2,-1.65385E-1,-3.9155346E-1,-1.1946828E-1,-7.598938E-2,1.4269488E-2,7.4054606E-2,6.783974E-2,2.5547078E-2,1.3638372E-3,-8.6597264E-2,4.4098757E-2,6.6296324E-2,6.782042E-2,-3.0224793E-2,1.4637668E-3,3.2362753E-1,-7.8313984E-2,-3.507329E-2,-3.5895404E-1,2.1614149E-1,2.0203571E-1,3.9805314E-1,2.737784E-1,1.8551098E-1,-1.139077E-1,-9.071963E-2,-2.1903643E-2,-5.90002E-2,-9.635564E-2,-4.834777E-2,-1.07756935E-1,-9.64328E-2,-3.1286556E-2,-7.0727386E-2,-7.204576E-2,-5.990011E-2,-3.930301E-2,-7.068958E-2,-9.339635E-2,-7.873083E-2,-5.557614E-2,-6.6113956E-2,-2.623575E-2,-4.8401453E-2,-6.288846E-2,-8.236562E-2,-4.7878742E-2,-6.490737E-2,-5.0221913E-2,-3.7175078E-2,-6.505973E-2,-4.398976E-2,-3.7853044E-2,-2.773294E-2,-4.856697E-2,-3.724982E-2,-3.5400115E-2,-3.210209E-2,-4.0166758E-2,-2.7695142E-2,-3.151847E-2,-4.300979E-2,-2.0115746E-2,-3.4533907E-2,-1.7750524E-2,-3.382544E-2,-1.8450992E-2,-2.4750596E-3,-3.0854506E-2,-1.7486338E-2,-3.281292E-2,-4.280983E-2,-9.054208E-3,1.2111961E-2,-3.74252E-2,-1.1598205E-2,-4.8788596E-2,-3.1329896E-2,-9.717809E-3,-2.6499556E-2,5.9539364E-3,-2.0529486E-2,2.2275101E-2,-3.1351317E-3,1.5980221E-2,-8.006368E-3,2.1842288E-2,2.8564692E-2],"split_indices":[0,0,0,0,0,0,0,8,8,8,0,0,8,4,8,1,7,8,3,1,4,8,4,0,3,8,8,3,7,0,5,1,8,2,0,2,7,7,1,8,8,7,3,3,8,3,2,8,8,4,3,7,3,7,8,7,2,7,4,1,7,8,0,0,0,0,0,0,0,0,0,0,0,0,0,0,0,0,0,0,0,0,0,0,0,0,0,0,0,0,0,0,0,0,0,0,0,0,0,0,0,0,0,0,0,0,0,0,0,0,0,0,0,0,0,0,0,0,0,0,0,0,0,0,0,0,0],"split_type":[0,0,0,0,0,0,0,0,0,0,0,0,0,0,0,0,0,0,0,0,0,0,0,0,0,0,0,0,0,0,0,0,0,0,0,0,0,0,0,0,0,0,0,0,0,0,0,0,0,0,0,0,0,0,0,0,0,0,0,0,0,0,0,0,0,0,0,0,0,0,0,0,0,0,0,0,0,0,0,0,0,0,0,0,0,0,0,0,0,0,0,0,0,0,0,0,0,0,0,0,0,0,0,0,0,0,0,0,0,0,0,0,0,0,0,0,0,0,0,0,0,0,0,0,0,0,0],"sum_hessian":[7.168075E7,3.3952436E7,3.772832E7,1.9683962E7,1.4268475E7,8.07996E6,2.9648358E7,9.653725E6,1.0030237E7,8.943412E6,5.325063E6,2.77493E6,5.30503E6,8.932195E6,2.0716164E7,7.42501E5,8.911224E6,8.78853E5,9.151384E6,1.25986E6,7.683552E6,2.809052E6,2.516011E6,1.118366E6,1.656564E6,4.67219E6,6.3284E5,7.983304E6,9.48891E5,2.151122E6,1.856504E7,4.79254E5,2.63247E5,4.54862E5,8.456362E6,1.12509E5,7.66344E5,7.40993E5,8.410391E6,8.43031E5,4.16829E5,6.464517E6,1.219035E6,4.86911E5,2.322141E6,2.84121E5,2.23189E6,8.10143E5,3.08223E5,2.0417E5,1.452394E6,9.38523E5,3.733667E6,3.89538E5,2.43302E5,7.181874E6,8.0143E5,1.31906E5,8.16985E5,1.149294E6,1.001828E6,2.180777E6,1.6384264E7,2.35925E5,2.43329E5,8.8076E4,1.75171E5,2.45771E5,2.09091E5,3.012025E6,5.444337E6,9.2275E4,2.0234E4,4.28694E5,3.3765E5,9.3135E4,6.47858E5,7.406585E6,1.003806E6,5.11657E5,3.31374E5,5.3673E4,3.63156E5,8.56582E5,5.607935E6,5.97411E5,6.21624E5,2.98701E5,1.8821E5,1.928139E6,3.94002E5,1.89899E5,9.4222E4,1.848855E6,3.83035E5,5.34423E5,2.7572E5,3.7918E4,2.70305E5,1.05811E5,9.8359E4,1.227347E6,2.25047E5,6.22793E5,3.1573E5,4.03394E5,3.330273E6,1.60959E5,2.28579E5,1.72637E5,7.0665E4,5.53571E5,6.628303E6,1.35894E5,6.65536E5,3.1996E4,9.991E4,6.52607E5,1.64378E5,8.98692E5,2.50602E5,7.98947E5,2.02881E5,1.622342E6,5.58435E5,8.749194E6,7.63507E6],"tree_param":{"num_deleted":"0","num_feature":"9","num_nodes":"127","size_leaf_vector":"0"}},{"base_weights":[-7.77897E-2,-1.9017297E-1,2.1646567E-2,-2.0825791E-1,-1.357081E-1,-2.073583E-2,4.71157E-2,-2.2055788E-1,-1.83373E-1,-1.4199997E-1,-8.927747E-2,-5.0610486E-2,1.8281778E-3,-1.1309312E-2,5.066674E-2,-2.2683896E-1,-1.913672E-1,-1.279203E-1,-1.9201168E-1,-1.5229292E-1,-1.0274392E-1,-9.9284895E-2,-3.7094563E-2,-7.2051756E-2,-3.8266372E-2,9.939291E-3,-4.8931144E-2,-1.0295193E-1,1.3291097E-3,-3.2310185E-3,5.4630995E-2,-2.3386073E-1,-1.8311948E-1,-1.3162154E-1,-2.040219E-1,-1.3420773E-1,-4.924984E-2,-1.328262E-1,-2.0216349E-1,-1.1464227E-1,-1.5975729E-1,-8.108498E-2,-1.2130085E-1,-4.394749E-2,-1.0611394E-1,-2.7211847E-2,-6.486637E-2,-8.0020346E-2,-6.421414E-2,-3.1696253E-2,-7.475708E-2,1.8478483E-2,-4.7064677E-2,-7.722596E-2,-3.192377E-2,-1.6821298E-1,-7.587039E-2,3.0733509E-2,-2.0034188E-2,2.374237E-2,-3.1693816E-2,3.4007005E-2,5.8147993E-2,-7.376126E-2,-6.83962E-2,-3.9717674E-2,-5.8910254E-2,-6.088488E-2,-3.153245E-2,-7.265464E-2,-5.7737622E-2,-3.102173E-2,-4.2263966E-2,-1.5904756E-3,-2.557828E-2,-4.233363E-2,-1.6841635E-2,-6.1944474E-2,-3.985619E-2,-3.827607E-2,-2.6328929E-2,-5.1185317E-2,-3.9240886E-2,-2.6822757E-2,-1.381516E-2,-3.8691916E-2,-2.4519041E-2,-1.827627E-2,-1.2602141E-3,-2.7288077E-2,-3.5576332E-2,-1.2009899E-2,-2.38848E-3,-2.4515785E-2,-1.5399332E-2,-2.4771785E-2,-2.2716928E-2,-2.7375283E-2,-1.7752975E-2,-7.3184124E-3,-2.2716772E-2,-2.8956404E-2,-1.856158E-2,-1.1825271E-2,7.3905485E-3,-2.1345101E-2,-5.989492E-3,-3.3240482E-2,-2.1249348E-2,-6.3532204E-3,-2.4615956E-2,-5.8249116E-2,-2.0481756E-2,-1.0311566E-3,-2.8588332E-2,5.360449E-3,2.179387E-2,-9.332762E-3,1.4804506E-2,-1.19429035E-2,9.2374375E-3,-1.1881047E-2,1.731634E-2,1.6430112E-2,1.7078933E-3,9.244149E-3,1.8778961E-2],"categories":[],"categories_nodes":[],"categories_segments":[],"categories_sizes":[],"default_left":[0,0,0,0,0,0,0,0,0,0,0,0,0,0,0,0,0,0,0,0,0,0,0,0,0,0,0,0,0,0,0,0,0,0,0,0,0,0,0,0,0,0,0,0,0,0,0,0,0,0,0,0,0,0,0,0,0,0,0,0,0,0,0,0,0,0,0,0,0,0,0,0,0,0,0,0,0,0,0,0,0,0,0,0,0,0,0,0,0,0,0,0,0,0,0,0,0,0,0,0,0,0,0,0,0,0,0,0,0,0,0,0,0,0,0,0,0,0,0,0,0,0,0,0,0,0,0],"id":5,"left_children":[1,3,5,7,9,11,13,15,17,19,21,23,25,27,29,31,33,35,37,39,41,43,45,47,49,51,53,55,57,59,61,63,65,67,69,71,73,75,77,79,81,83,85,87,89,91,93,95,97,99,101,103,105,107,109,111,113,115,117,119,121,123,125,-1,-1,-1,-1,-1,-1,-1,-1,-1,-1,-1,-1,-1,-1,-1,-1,-1,-1,-1,-1,-1,-1,-1,-1,-1,-1,-1,-1,-1,-1,-1,-1,-1,-1,-1,-1,-1,-1,-1,-1,-1,-1,-1,-1,-1,-1,-1,-1,-1,-1,-1,-1,-1,-1,-1,-1,-1,-1,-1,-1,-1,-1,-1,-1],"loss_changes":[8.010305E5,3.314475E4,4.1052332E4,7.732E3,2.4504531E3,9.623031E3,4.928547E3,3.0996875E3,4.0028438E3,2.9847969E3,5.2275195E2,1.6257998E3,3.3484238E3,1.5764736E3,4.784883E3,4.27075E3,2.2632656E3,5.570957E2,4.343875E3,1.6447656E3,6.167539E2,3.1741406E2,4.4209473E1,1.4016504E2,9.346162E2,3.4133809E3,5.3922437E2,2.9153625E2,7.513977E2,1.1779327E3,1.5130703E3,8.455E2,1.2937891E3,9.8949414E2,1.0899766E3,2.1432227E2,1.3191763E2,6.7260156E2,1.8469375E3,3.369043E2,1.5358438E3,2.0649805E2,2.5089453E2,6.22493E1,1.4132031E2,2.9322723E1,9.639557E0,1.2199707E1,1.5410059E2,1.0619541E3,1.6679688E2,2.173882E3,5.9631323E2,9.03147E1,3.7702356E2,1.2545654E2,1.6402856E2,2.714159E2,5.323657E2,3.5290323E2,5.2798315E2,1.7863359E3,2.166996E3,0E0,0E0,0E0,0E0,0E0,0E0,0E0,0E0,0E0,0E0,0E0,0E0,0E0,0E0,0E0,0E0,0E0,0E0,0E0,0E0,0E0,0E0,0E0,0E0,0E0,0E0,0E0,0E0,0E0,0E0,0E0,0E0,0E0,0E0,0E0,0E0,0E0,0E0,0E0,0E0,0E0,0E0,0E0,0E0,0E0,0E0,0E0,0E0,0E0,0E0,0E0,0E0,0E0,0E0,0E0,0E0,0E0,0E0,0E0,0E0,0E0,0E0,0E0,0E0],"parents":[2147483647,0,0,1,1,2,2,3,3,4,4,5,5,6,6,7,7,8,8,9,9,10,10,11,11,12,12,13,13,14,14,15,15,16,16,17,17,18,18,19,19,20,20,21,21,22,22,23,23,24,24,25,25,26,26,27,27,28,28,29,29,30,30,31,31,32,32,33,33,34,34,35,35,36,36,37,37,38,38,39,39,40,40,41,41,42,42,43,43,44,44,45,45,46,46,47,47,48,48,49,49,50,50,51,51,52,52,53,53,54,54,55,55,56,56,57,57,58,58,59,59,60,60,61,61,62,62],"right_children":[2,4,6,8,10,12,14,16,18,20,22,24,26,28,30,32,34,36,38,40,42,44,46,48,50,52,54,56,58,60,62,64,66,68,70,72,74,76,78,80,82,84,86,88,90,92,94,96,98,100,102,104,106,108,110,112,114,116,118,120,122,124,126,-1,-1,-1,-1,-1,-1,-1,-1,-1,-1,-1,-1,-1,-1,-1,-1,-1,-1,-1,-1,-1,-1,-1,-1,-1,-1,-1,-1,-1,-1,-1,-1,-1,-1,-1,-1,-1,-1,-1,-1,-1,-1,-1,-1,-1,-1,-1,-1,-1,-1,-1,-1,-1,-1,-1,-1,-1,-1,-1,-1,-1,-1,-1,-1],"split_conditions":[-1.5616654E-3,-4.8502237E-2,7.094448E-2,-1.093491E-1,1.9919584E-2,2.8248956E-2,4.393891E-2,-1.7864361E-2,-1.3606144E-1,5.6251455E-3,2.0655975E-1,8.513585E-3,1.2331162E-1,-3.221698E-1,5.132443E-2,-2.9830674E-3,-3.3330336E-1,7.7274226E-2,-1.3326265E-1,-9.082233E-2,-5.349019E-2,-1.3322896E-1,-3.1829834E-2,2.7256922E-3,9.3952164E-2,1.0308784E-1,4.2308583E-3,-5.559977E-1,1.1476914E-1,1.4477447E-1,1.7033126E-2,-2.7148375E-1,-3.742966E-1,-3.029241E-1,-2.786636E-1,-2.865228E-1,-2.5175905E-1,1.3716526E-1,1.1075918E-1,9.966935E-3,-1.6334185E-2,1.4209758E-1,1.2773396E-1,1.2769037E-1,-4.5032583E-2,3.3604053E-1,2.8235847E-1,1.2877374E-3,-6.841275E-2,7.094182E-2,-4.4230274E-3,-2.8639914E-2,8.691274E-3,-2.23792E-1,2.511805E-1,2.8267467E-1,3.9562598E-2,1.2104069E-1,2.0195836E-1,-2.4567428E-1,2.739663E-1,1.3472234E-1,2.1313678E-2,-7.376126E-2,-6.83962E-2,-3.9717674E-2,-5.8910254E-2,-6.088488E-2,-3.153245E-2,-7.265464E-2,-5.7737622E-2,-3.102173E-2,-4.2263966E-2,-1.5904756E-3,-2.557828E-2,-4.233363E-2,-1.6841635E-2,-6.1944474E-2,-3.985619E-2,-3.827607E-2,-2.6328929E-2,-5.1185317E-2,-3.9240886E-2,-2.6822757E-2,-1.381516E-2,-3.8691916E-2,-2.4519041E-2,-1.827627E-2,-1.2602141E-3,-2.7288077E-2,-3.5576332E-2,-1.2009899E-2,-2.38848E-3,-2.4515785E-2,-1.5399332E-2,-2.4771785E-2,-2.2716928E-2,-2.7375283E-2,-1.7752975E-2,-7.3184124E-3,-2.2716772E-2,-2.8956404E-2,-1.856158E-2,-1.1825271E-2,7.3905485E-3,-2.1345101E-2,-5.989492E-3,-3.3240482E-2,-2.1249348E-2,-6.3532204E-3,-2.4615956E-2,-5.8249116E-2,-2.0481756E-2,-1.0311566E-3,-2.8588332E-2,5.360449E-3,2.179387E-2,-9.332762E-3,1.4804506E-2,-1.19429035E-2,9.2374375E-3,-1.1881047E-2,1.731634E-2,1.6430112E-2,1.7078933E-3,9.244149E-3,1.8778961E-2],"split_indices":[0,0,0,0,1,0,1,7,3,2,7,0,7,7,2,8,8,2,4,8,3,2,2,0,7,4,8,7,4,3,8,0,7,1,0,7,1,3,7,7,0,4,8,1,6,7,7,1,7,4,2,4,7,8,7,0,4,0,0,8,0,7,7,0,0,0,0,0,0,0,0,0,0,0,0,0,0,0,0,0,0,0,0,0,0,0,0,0,0,0,0,0,0,0,0,0,0,0,0,0,0,0,0,0,0,0,0,0,0,0,0,0,0,0,0,0,0,0,0,0,0,0,0,0,0,0,0],"split_type":[0,0,0,0,0,0,0,0,0,0,0,0,0,0,0,0,0,0,0,0,0,0,0,0,0,0,0,0,0,0,0,0,0,0,0,0,0,0,0,0,0,0,0,0,0,0,0,0,0,0,0,0,0,0,0,0,0,0,0,0,0,0,0,0,0,0,0,0,0,0,0,0,0,0,0,0,0,0,0,0,0,0,0,0,0,0,0,0,0,0,0,0,0,0,0,0,0,0,0,0,0,0,0,0,0,0,0,0,0,0,0,0,0,0,0,0,0,0,0,0,0,0,0,0,0,0,0],"sum_hessian":[7.168075E7,3.3649716E7,3.803104E7,2.526164E7,8.388076E6,1.4275545E7,2.3755496E7,1.6905618E7,8.356021E6,7.387044E6,1.001032E6,6.142671E6,8.132874E6,1.361119E6,2.2394376E7,1.3912089E7,2.993529E6,1.126286E6,7.229735E6,5.852512E6,1.534532E6,8.39949E5,1.61083E5,2.244337E6,3.898334E6,7.012335E6,1.120539E6,1.64961E5,1.196158E6,1.534288E6,2.0860088E7,1.1986878E7,1.925211E6,5.23235E5,2.470294E6,1.042933E6,8.3353E4,1.05852E6,6.171215E6,9.68313E5,4.884199E6,7.08086E5,8.26446E5,9.227E4,7.47679E5,1.18807E5,4.2276E4,1.112865E6,1.131472E6,3.303537E6,5.94797E5,6.098744E6,9.13591E5,4.20672E5,6.99867E5,4.8377E4,1.16584E5,5.03349E5,6.92809E5,7.87755E5,7.46533E5,3.039019E6,1.7821068E7,3.936779E6,8.050099E6,3.98676E5,1.526535E6,1.41786E5,3.81449E5,5.74462E5,1.895832E6,1.85694E5,8.57239E5,3.754E4,4.5813E4,9.55301E5,1.03219E5,5.809285E6,3.6193E5,6.53563E5,3.1475E5,3.551914E6,1.332285E6,5.72143E5,1.35943E5,6.9223E5,1.34216E5,6.4658E4,2.7612E4,3.37581E5,4.10098E5,7.1311E4,4.7496E4,1.8828E4,2.3448E4,6.98178E5,4.14687E5,1.77705E5,9.53767E5,2.8336E6,4.69937E5,2.21186E5,3.73611E5,5.86204E5,5.51254E6,4.83693E5,4.29898E5,6.73E4,3.53372E5,5.76321E5,1.23546E5,3.8404E4,9.973E3,2.4653E4,9.1931E4,3.85132E5,1.18217E5,5.97444E5,9.5365E4,7.8652E4,7.09103E5,6.85862E5,6.0671E4,1.753408E6,1.285611E6,2.49437E6,1.5326699E7],"tree_param":{"num_deleted":"0","num_feature":"9","num_nodes":"127","size_leaf_vector":"0"}},{"base_weights":[-5.4452814E-2,-1.3376632E-1,1.4645697E-2,-1.4853324E-1,-1.0211087E-1,-3.0659333E-2,2.737673E-2,-1.5143825E-1,-1.0291462E-1,-1.08827285E-1,-7.243054E-2,-4.59865E-2,-1.7163867E-2,-2.3946527E-2,3.0725256E-2,-1.550239E-1,-1.1146081E-1,-1.2461606E-1,-7.269101E-2,-1.17771365E-1,-7.4804835E-2,-5.095901E-2,-8.667735E-2,-7.208102E-2,-4.3609682E-2,-6.2446404E-2,-1.2513747E-2,-7.068617E-2,-1.2732032E-2,-4.0930505E-3,3.5587132E-2,-1.6506407E-1,-1.4421244E-1,-1.6309145E-1,-9.741946E-2,-3.959734E-2,-1.3016646E-1,-9.4632894E-2,-3.2349467E-2,-8.249609E-2,-1.2508437E-1,-8.192668E-2,-2.7979957E-2,-6.893449E-2,-4.1780584E-2,-9.453184E-2,-4.5563202E-2,-6.2225357E-2,-8.6317815E-2,-5.557241E-2,-3.7041537E-2,-1.0956298E-1,-5.1883303E-2,-5.7902094E-3,-5.3691313E-2,-1.4311595E-1,-6.2128823E-2,-1.3640137E-1,-9.9928E-3,-5.049752E-2,5.5498336E-3,2.8308995E-2,4.714348E-2,-4.1996136E-2,-5.1078096E-2,-3.0628288E-2,-4.588391E-2,-5.079282E-2,1.4238801E-2,-3.2065507E-2,-1.1531462E-2,-3.5392284E-2,4.0552374E-3,-5.2840285E-2,-3.5090383E-2,-2.4578495E-2,-4.1968405E-2,-6.017668E-3,-2.9044E-2,-2.9101366E-2,-1.9235762E-2,-2.6323875E-2,-3.9508753E-2,-1.9502329E-2,-2.9155068E-2,-1.2576955E-2,-3.6077425E-3,-2.1385519E-2,-5.1936656E-3,-1.3111935E-2,-3.8227118E-3,-2.9157883E-2,-8.291597E-3,-5.99729E-3,-1.6384793E-2,-2.15858E-2,-1.6857604E-2,-1.6830117E-2,-2.8416768E-2,-1.7188655E-2,-1.45686725E-2,-9.336859E-3,-1.9287102E-2,-3.927938E-2,-2.9369263E-2,-1.320431E-2,-3.288032E-2,3.3710923E-5,-9.949382E-3,-2.6736287E-2,-1.3751316E-2,-4.7069423E-2,-1.11675365E-2,-2.097922E-2,7.356443E-3,-1.4677753E-2,-5.8052048E-2,-4.587181E-3,1.7181648E-2,-3.4879062E-2,-1.1462274E-2,8.535383E-3,-5.3155096E-3,1.0289341E-2,-1.5939826E-2,1.5107125E-2,-3.5060155E-5],"categories":[],"categories_nodes":[],"categories_segments":[],"categories_sizes":[],"default_left":[0,0,0,0,0,0,0,0,0,0,0,0,0,0,0,0,0,0,0,0,0,0,0,0,0,0,0,0,0,0,0,0,0,0,0,0,0,0,0,0,0,0,0,0,0,0,0,0,0,0,0,0,0,0,0,0,0,0,0,0,0,0,0,0,0,0,0,0,0,0,0,0,0,0,0,0,0,0,0,0,0,0,0,0,0,0,0,0,0,0,0,0,0,0,0,0,0,0,0,0,0,0,0,0,0,0,0,0,0,0,0,0,0,0,0,0,0,0,0,0,0,0,0,0,0,0,0],"id":6,"left_children":[1,3,5,7,9,11,13,15,17,19,21,23,25,27,29,31,33,35,37,39,41,43,45,47,49,51,53,55,57,59,61,63,65,67,69,71,73,75,77,79,81,83,85,87,89,91,93,95,97,99,101,103,105,107,109,111,113,115,117,119,121,123,125,-1,-1,-1,-1,-1,-1,-1,-1,-1,-1,-1,-1,-1,-1,-1,-1,-1,-1,-1,-1,-1,-1,-1,-1,-1,-1,-1,-1,-1,-1,-1,-1,-1,-1,-1,-1,-1,-1,-1,-1,-1,-1,-1,-1,-1,-1,-1,-1,-1,-1,-1,-1,-1,-1,-1,-1,-1,-1,-1,-1,-1,-1,-1,-1],"loss_changes":[3.928425E5,1.56005E4,2.2094836E4,3.015875E3,2.1162656E3,1.738185E3,5.139217E3,3.066875E3,8.9361426E2,2.634336E3,5.992627E2,2.4402832E2,9.409563E2,9.600287E2,4.752166E3,2.13125E3,1.2766523E3,3.7421582E2,5.0403027E2,1.7683516E3,6.00958E2,1.2891602E2,3.8029102E2,4.6082397E1,2.833423E2,2.0711316E2,1.1219656E3,2.1966113E2,5.0039224E2,1.5391377E3,2.071834E3,1.3265E3,3.4776562E3,4.929541E2,7.7294434E2,2.0232637E2,4.5162793E2,2.1207056E2,1.589354E2,3.1383252E2,1.4016328E3,4.0375684E2,5.2922455E1,3.2047485E1,2.8927124E1,1.7600293E2,4.372757E1,1.1387268E1,3.411908E1,1.5436523E1,3.7544556E2,1.8984253E1,1.5439008E2,5.62889E2,1.5826941E2,5.4645752E1,2.142854E2,1.5988605E2,5.149819E2,4.7831042E2,1.5175436E3,7.371715E3,1.4456699E3,0E0,0E0,0E0,0E0,0E0,0E0,0E0,0E0,0E0,0E0,0E0,0E0,0E0,0E0,0E0,0E0,0E0,0E0,0E0,0E0,0E0,0E0,0E0,0E0,0E0,0E0,0E0,0E0,0E0,0E0,0E0,0E0,0E0,0E0,0E0,0E0,0E0,0E0,0E0,0E0,0E0,0E0,0E0,0E0,0E0,0E0,0E0,0E0,0E0,0E0,0E0,0E0,0E0,0E0,0E0,0E0,0E0,0E0,0E0,0E0,0E0,0E0,0E0,0E0],"parents":[2147483647,0,0,1,1,2,2,3,3,4,4,5,5,6,6,7,7,8,8,9,9,10,10,11,11,12,12,13,13,14,14,15,15,16,16,17,17,18,18,19,19,20,20,21,21,22,22,23,23,24,24,25,25,26,26,27,27,28,28,29,29,30,30,31,31,32,32,33,33,34,34,35,35,36,36,37,37,38,38,39,39,40,40,41,41,42,42,43,43,44,44,45,45,46,46,47,47,48,48,49,49,50,50,51,51,52,52,53,53,54,54,55,55,56,56,57,57,58,58,59,59,60,60,61,61,62,62],"right_children":[2,4,6,8,10,12,14,16,18,20,22,24,26,28,30,32,34,36,38,40,42,44,46,48,50,52,54,56,58,60,62,64,66,68,70,72,74,76,78,80,82,84,86,88,90,92,94,96,98,100,102,104,106,108,110,112,114,116,118,120,122,124,126,-1,-1,-1,-1,-1,-1,-1,-1,-1,-1,-1,-1,-1,-1,-1,-1,-1,-1,-1,-1,-1,-1,-1,-1,-1,-1,-1,-1,-1,-1,-1,-1,-1,-1,-1,-1,-1,-1,-1,-1,-1,-1,-1,-1,-1,-1,-1,-1,-1,-1,-1,-1,-1,-1,-1,-1,-1,-1,-1,-1,-1,-1,-1,-1],"split_conditions":[-2.992574E-3,-6.4618416E-2,3.8323082E-2,1.3715863E-1,4.9840186E-2,1.5690502E-2,2.13033E-2,8.055116E-2,-7.60021E-2,-1.5461395E-3,-4.65168E-2,-7.034688E-2,-1.9222362E-2,-2.1408024E-1,1.8535046E-2,-1.6164188E-1,-2.3991606E-1,-6.390135E-1,3.015959E-1,-9.973234E-2,1.6171597E-1,-4.1680686E-2,1.9763052E-1,4.984932E-2,2.7256922E-3,-2.1873644E-1,6.303406E-2,-6.385227E-1,-2.399764E-1,-2.5496125E-2,1.7458673E-1,-3.7405637E-1,-1.7624453E-1,1.7816326E-1,3.649267E-1,-5.5545634E-1,-3.9209104E-1,-5.3656526E-2,-1.1681715E-2,-2.704375E-2,-9.981175E-2,-5.1838968E-2,2.511805E-1,4.1801536E-1,3.4995183E-1,7.7056825E-2,-6.458689E-2,-1.6191326E-1,1.2894807E-3,1.2894807E-3,8.200577E-2,-3.5873377E-1,1.3710241E-1,8.383195E-2,-5.717822E-2,3.369202E-1,2.5110048E-1,2.5108263E-1,1.7816137E-1,-3.5922498E-1,7.8866325E-2,2.2106378E-1,5.345102E-1,-4.1996136E-2,-5.1078096E-2,-3.0628288E-2,-4.588391E-2,-5.079282E-2,1.4238801E-2,-3.2065507E-2,-1.1531462E-2,-3.5392284E-2,4.0552374E-3,-5.2840285E-2,-3.5090383E-2,-2.4578495E-2,-4.1968405E-2,-6.017668E-3,-2.9044E-2,-2.9101366E-2,-1.9235762E-2,-2.6323875E-2,-3.9508753E-2,-1.9502329E-2,-2.9155068E-2,-1.2576955E-2,-3.6077425E-3,-2.1385519E-2,-5.1936656E-3,-1.3111935E-2,-3.8227118E-3,-2.9157883E-2,-8.291597E-3,-5.99729E-3,-1.6384793E-2,-2.15858E-2,-1.6857604E-2,-1.6830117E-2,-2.8416768E-2,-1.7188655E-2,-1.45686725E-2,-9.336859E-3,-1.9287102E-2,-3.927938E-2,-2.9369263E-2,-1.320431E-2,-3.288032E-2,3.3710923E-5,-9.949382E-3,-2.6736287E-2,-1.3751316E-2,-4.7069423E-2,-1.11675365E-2,-2.097922E-2,7.356443E-3,-1.4677753E-2,-5.8052048E-2,-4.587181E-3,1.7181648E-2,-3.4879062E-2,-1.1462274E-2,8.535383E-3,-5.3155096E-3,1.0289341E-2,-1.5939826E-2,1.5107125E-2,-3.5060155E-5],"split_indices":[0,0,0,7,8,0,1,8,1,1,7,4,2,7,4,0,2,8,7,7,7,0,8,1,0,8,2,7,1,2,0,8,8,1,8,0,0,4,4,2,8,8,7,8,8,1,1,8,0,0,8,8,1,7,1,0,0,2,0,4,7,8,8,0,0,0,0,0,0,0,0,0,0,0,0,0,0,0,0,0,0,0,0,0,0,0,0,0,0,0,0,0,0,0,0,0,0,0,0,0,0,0,0,0,0,0,0,0,0,0,0,0,0,0,0,0,0,0,0,0,0,0,0,0,0,0,0],"split_type":[0,0,0,0,0,0,0,0,0,0,0,0,0,0,0,0,0,0,0,0,0,0,0,0,0,0,0,0,0,0,0,0,0,0,0,0,0,0,0,0,0,0,0,0,0,0,0,0,0,0,0,0,0,0,0,0,0,0,0,0,0,0,0,0,0,0,0,0,0,0,0,0,0,0,0,0,0,0,0,0,0,0,0,0,0,0,0,0,0,0,0,0,0,0,0,0,0,0,0,0,0,0,0,0,0,0,0,0,0,0,0,0,0,0,0,0,0,0,0,0,0,0,0,0,0,0,0],"sum_hessian":[7.168075E7,3.3373532E7,3.8307224E7,2.275744E7,1.0616091E7,8.403233E6,2.9903992E7,2.1394996E7,1.362445E6,8.657066E6,1.959025E6,3.934599E6,4.468634E6,1.831552E6,2.807244E7,1.9633984E7,1.761011E6,7.93026E5,5.69419E5,6.854975E6,1.802091E6,7.81389E5,1.177636E6,3.28462E5,3.606137E6,4.16153E5,4.052481E6,3.54416E5,1.477136E6,3.43962E6,2.463282E7,1.0180121E7,9.453863E6,3.7652E5,1.384491E6,4.86E4,7.44426E5,3.68817E5,2.00602E5,1.177098E6,5.677877E6,1.564185E6,2.37906E5,2.64119E5,5.1727E5,9.88744E5,1.88892E5,1.94099E5,1.34363E5,1.278169E6,2.327968E6,7.621E4,3.39943E5,3.483664E6,5.68817E5,3.7447E4,3.16969E5,3.2008E4,1.445128E6,5.91782E5,2.847838E6,1.5114057E7,9.518762E6,1.747371E6,8.43275E6,1.623717E6,7.830146E6,3.6572E5,1.08E4,1.193028E6,1.91463E5,1.9631E4,2.8969E4,1.6606E5,5.78366E5,2.87985E5,8.0832E4,1.68481E5,3.2121E4,6.5778E5,5.19318E5,8.54142E5,4.823735E6,7.41696E5,8.22489E5,1.26953E5,1.10953E5,2.52616E5,1.1503E4,4.85097E5,3.2173E4,9.50915E5,3.7829E4,4.9387E4,1.39505E5,7.4299E4,1.198E5,2.9241E4,1.05122E5,1.025976E6,2.52193E5,1.912548E6,4.1542E5,2.6909E4,4.9301E4,2.99159E5,4.0784E4,2.865742E6,6.17922E5,1.03208E5,4.65609E5,3.3134E4,4.313E3,2.90787E5,2.6182E4,1.2643E4,1.9365E4,1.33962E6,1.05508E5,9.3175E4,4.98607E5,1.43523E6,1.412608E6,1.4078777E7,1.03528E6,8.912717E6,6.06045E5],"tree_param":{"num_deleted":"0","num_feature":"9","num_nodes":"127","size_leaf_vector":"0"}},{"base_weights":[-3.8116988E-2,-9.461323E-2,9.593436E-3,-1.08611256E-1,-7.8104354E-2,-1.131948E-2,2.5912914E-2,-1.1106397E-1,-7.989668E-2,-8.6345606E-2,-6.166713E-2,-3.6243197E-2,-4.2789155E-3,2.3504162E-2,6.035877E-2,-1.13616854E-1,-7.986334E-2,-5.9662793E-2,-1.12972766E-1,-5.0585903E-2,-9.232212E-2,-3.238063E-2,-6.601104E-2,-6.8794854E-2,-3.279007E-2,-3.2702535E-2,3.8237174E-3,2.7257081E-2,-3.096917E-2,5.2772228E-2,8.680376E-2,-9.4578415E-2,-1.1696818E-1,-5.7312835E-2,-1.0201572E-1,-6.5012306E-2,4.7823504E-2,-1.0489424E-1,-1.4844832E-1,-1.0547222E-2,-5.4758474E-2,-5.6583803E-2,-9.97994E-2,-3.6512338E-2,-3.8635063E-3,-3.292188E-2,-7.063707E-2,-2.6222324E-2,-7.470109E-2,-3.1296127E-2,-8.986649E-2,-5.8387455E-2,-2.6788296E-2,9.404154E-3,-3.2342862E-2,3.1185485E-2,-3.0747807E-2,-6.9765195E-2,7.308243E-3,5.9129637E-2,-4.4890933E-2,8.257093E-2,1.2771396E-1,-3.7040334E-2,-1.1805853E-2,-1.6184008E-2,-3.594605E-2,-3.402751E-2,-1.3189726E-2,-3.2987E-2,-9.775466E-3,-4.0400073E-2,-1.7330984E-2,2.587857E-2,-1.4120553E-2,-3.3495363E-2,-1.4701787E-2,-4.5206096E-2,9.577353E-3,-7.6250737E-3,1.3396166E-2,-2.0273793E-2,-1.2776825E-2,-2.2223797E-2,-1.1157547E-2,-3.18018E-2,-2.1648115E-2,-1.3449404E-2,-7.799437E-3,7.4311784E-3,-3.781689E-3,-1.119809E-2,-3.9608276E-4,-1.4201373E-2,-2.2397276E-2,-5.7850657E-3,-1.1079817E-2,-3.523417E-2,-2.0892428E-2,-1.17155295E-2,-7.399676E-3,-4.1131686E-2,-2.1817587E-2,-4.1768434E-3,-1.883968E-2,-5.567531E-3,-1.2935628E-2,4.641673E-3,-7.7251946E-3,-1.7691901E-2,-6.463259E-3,7.49787E-3,1.3748816E-2,-2.2983056E-2,2.7224612E-3,4.5892023E-3,-2.271809E-2,5.9563266E-3,-2.179366E-2,1.9294167E-2,-5.093108E-3,-2.4686465E-2,-1.4212234E-3,2.6973495E-2,1.884535E-2,7.583481E-2,3.810032E-2],"categories":[],"categories_nodes":[],"categories_segments":[],"categories_sizes":[],"default_left":[0,0,0,0,0,0,0,0,0,0,0,0,0,0,0,0,0,0,0,0,0,0,0,0,0,0,0,0,0,0,0,0,0,0,0,0,0,0,0,0,0,0,0,0,0,0,0,0,0,0,0,0,0,0,0,0,0,0,0,0,0,0,0,0,0,0,0,0,0,0,0,0,0,0,0,0,0,0,0,0,0,0,0,0,0,0,0,0,0,0,0,0,0,0,0,0,0,0,0,0,0,0,0,0,0,0,0,0,0,0,0,0,0,0,0,0,0,0,0,0,0,0,0,0,0,0,0],"id":7,"left_children":[1,3,5,7,9,11,13,15,17,19,21,23,25,27,29,31,33,35,37,39,41,43,45,47,49,51,53,55,57,59,61,63,65,67,69,71,73,75,77,79,81,83,85,87,89,91,93,95,97,99,101,103,105,107,109,111,113,115,117,119,121,123,125,-1,-1,-1,-1,-1,-1,-1,-1,-1,-1,-1,-1,-1,-1,-1,-1,-1,-1,-1,-1,-1,-1,-1,-1,-1,-1,-1,-1,-1,-1,-1,-1,-1,-1,-1,-1,-1,-1,-1,-1,-1,-1,-1,-1,-1,-1,-1,-1,-1,-1,-1,-1,-1,-1,-1,-1,-1,-1,-1,-1,-1,-1,-1,-1],"loss_changes":[1.9321256E5,7.584125E3,1.3263175E4,1.2507969E3,2.0398984E3,2.9890435E3,1.8111279E3,1.3032812E3,9.3536035E2,2.143586E3,6.3975195E2,4.217339E2,3.0589014E3,4.170792E3,2.8621973E2,9.650156E2,6.181997E2,4.9861523E2,1.5201074E2,2.39948E2,2.2964531E3,7.653308E1,6.703379E2,9.0476685E1,2.8923755E2,4.4756543E2,2.0859788E3,4.3492217E3,1.952746E3,6.8832837E2,5.506299E1,3.611873E3,2.3115312E3,4.592843E2,3.4418848E2,4.1669995E2,1.499599E2,1.6316211E2,3.973413E1,1.112662E2,2.0293066E2,5.0446387E2,1.2191172E3,4.962384E1,2.0577349E1,7.4775024E1,3.5990234E2,3.2574196E0,6.833594E1,1.699851E2,7.004913E1,1.0816821E2,3.2186487E2,1.9100862E3,3.9730066E2,1.6210625E3,2.2111086E3,3.3118335E2,6.639728E2,4.1068115E2,1.0174422E2,4.1786987E1,2.6266785E0,0E0,0E0,0E0,0E0,0E0,0E0,0E0,0E0,0E0,0E0,0E0,0E0,0E0,0E0,0E0,0E0,0E0,0E0,0E0,0E0,0E0,0E0,0E0,0E0,0E0,0E0,0E0,0E0,0E0,0E0,0E0,0E0,0E0,0E0,0E0,0E0,0E0,0E0,0E0,0E0,0E0,0E0,0E0,0E0,0E0,0E0,0E0,0E0,0E0,0E0,0E0,0E0,0E0,0E0,0E0,0E0,0E0,0E0,0E0,0E0,0E0,0E0,0E0,0E0],"parents":[2147483647,0,0,1,1,2,2,3,3,4,4,5,5,6,6,7,7,8,8,9,9,10,10,11,11,12,12,13,13,14,14,15,15,16,16,17,17,18,18,19,19,20,20,21,21,22,22,23,23,24,24,25,25,26,26,27,27,28,28,29,29,30,30,31,31,32,32,33,33,34,34,35,35,36,36,37,37,38,38,39,39,40,40,41,41,42,42,43,43,44,44,45,45,46,46,47,47,48,48,49,49,50,50,51,51,52,52,53,53,54,54,55,55,56,56,57,57,58,58,59,59,60,60,61,61,62,62],"right_children":[2,4,6,8,10,12,14,16,18,20,22,24,26,28,30,32,34,36,38,40,42,44,46,48,50,52,54,56,58,60,62,64,66,68,70,72,74,76,78,80,82,84,86,88,90,92,94,96,98,100,102,104,106,108,110,112,114,116,118,120,122,124,126,-1,-1,-1,-1,-1,-1,-1,-1,-1,-1,-1,-1,-1,-1,-1,-1,-1,-1,-1,-1,-1,-1,-1,-1,-1,-1,-1,-1,-1,-1,-1,-1,-1,-1,-1,-1,-1,-1,-1,-1,-1,-1,-1,-1,-1,-1,-1,-1,-1,-1,-1,-1,-1,-1,-1,-1,-1,-1,-1,-1,-1,-1,-1,-1],"split_conditions":[-5.88608E-3,-1.0198404E-1,8.201825E-2,-8.214921E-2,-3.3419166E-2,2.725523E-3,4.670704E-1,9.7485684E-2,-1.4208195E-1,-1.2203471E-1,-5.535342E-2,-2.0043461E-1,5.6138923E-3,3.8099712E-1,6.882731E-1,-3.4548652E-1,-1.9619001E-1,1.817972E-1,3.2437023E-2,-2.1396545E-1,-1.14250414E-1,9.042803E-2,-5.9009194E-2,1.2894807E-3,1.8942267E-1,-1.3037114E-1,1.2110879E-1,3.649267E-1,3.120035E-1,6.881761E-1,1E0,-3.123056E-1,-4.3648857E-1,-3.1266373E-1,1.8520823E-2,-2.786636E-1,-3.457422E-1,2.159392E-1,4.9674687E-1,1.5863658E-1,-3.6743898E-2,-1.1713701E-2,3.11204E-2,2.277468E-2,-2.1877839E-1,1.030244E-1,-7.036762E-2,-1.5616654E-3,-5.0424933E-1,7.133033E-3,-1.5477158E-1,0E0,7.565189E-2,1.1075918E-1,1.2829163E-2,1.975957E-1,2.8267467E-1,1.5294681E-1,5.921101E-1,6.8887466E-1,4.9673083E-1,6.881761E-1,6.611804E-2,-3.7040334E-2,-1.1805853E-2,-1.6184008E-2,-3.594605E-2,-3.402751E-2,-1.3189726E-2,-3.2987E-2,-9.775466E-3,-4.0400073E-2,-1.7330984E-2,2.587857E-2,-1.4120553E-2,-3.3495363E-2,-1.4701787E-2,-4.5206096E-2,9.577353E-3,-7.6250737E-3,1.3396166E-2,-2.0273793E-2,-1.2776825E-2,-2.2223797E-2,-1.1157547E-2,-3.18018E-2,-2.1648115E-2,-1.3449404E-2,-7.799437E-3,7.4311784E-3,-3.781689E-3,-1.119809E-2,-3.9608276E-4,-1.4201373E-2,-2.2397276E-2,-5.7850657E-3,-1.1079817E-2,-3.523417E-2,-2.0892428E-2,-1.17155295E-2,-7.399676E-3,-4.1131686E-2,-2.1817587E-2,-4.1768434E-3,-1.883968E-2,-5.567531E-3,-1.2935628E-2,4.641673E-3,-7.7251946E-3,-1.7691901E-2,-6.463259E-3,7.49787E-3,1.3748816E-2,-2.2983056E-2,2.7224612E-3,4.5892023E-3,-2.271809E-2,5.9563266E-3,-2.179366E-2,1.9294167E-2,-5.093108E-3,-2.4686465E-2,-1.4212234E-3,2.6973495E-2,1.884535E-2,7.583481E-2,3.810032E-2],"split_indices":[0,0,0,2,0,2,0,7,3,3,1,8,1,7,0,7,6,2,3,1,4,2,2,0,1,7,8,8,0,8,0,2,8,1,1,0,1,8,2,2,8,7,8,8,1,1,7,0,8,0,2,0,8,7,7,0,0,3,7,7,1,8,2,0,0,0,0,0,0,0,0,0,0,0,0,0,0,0,0,0,0,0,0,0,0,0,0,0,0,0,0,0,0,0,0,0,0,0,0,0,0,0,0,0,0,0,0,0,0,0,0,0,0,0,0,0,0,0,0,0,0,0,0,0,0,0,0],"split_type":[0,0,0,0,0,0,0,0,0,0,0,0,0,0,0,0,0,0,0,0,0,0,0,0,0,0,0,0,0,0,0,0,0,0,0,0,0,0,0,0,0,0,0,0,0,0,0,0,0,0,0,0,0,0,0,0,0,0,0,0,0,0,0,0,0,0,0,0,0,0,0,0,0,0,0,0,0,0,0,0,0,0,0,0,0,0,0,0,0,0,0,0,0,0,0,0,0,0,0,0,0,0,0,0,0,0,0,0,0,0,0,0,0,0,0,0,0,0,0,0,0,0,0,0,0,0,0],"sum_hessian":[7.168075E7,3.281862E7,3.8862136E7,1.7759864E7,1.5058756E7,1.7033816E7,2.1828316E7,1.6362248E7,1.397617E6,1.0029956E7,5.0288E6,3.751927E6,1.328189E7,2.040166E7,1.426658E6,1.5124718E7,1.23753E6,8.67151E5,5.30466E5,1.436263E6,8.593693E6,6.49552E5,4.379248E6,3.59836E5,3.392091E6,2.946326E6,1.0335564E7,1.908669E7,1.314969E6,1.10862E6,3.18038E5,2.263887E6,1.2860831E7,6.13256E5,6.24274E5,8.2604E5,4.1111E4,4.32077E5,9.8389E4,1.35552E5,1.300711E6,1.486906E6,7.106787E6,5.67351E5,8.2201E4,5.37146E5,3.842102E6,4.384E4,3.15996E5,3.305571E6,8.652E4,5.51446E5,2.39488E6,8.953982E6,1.381582E6,1.7876028E7,1.210661E6,6.5306E5,6.61909E5,1.040865E6,6.7755E4,2.8822E5,2.9818E4,1.486352E6,7.77535E5,5.56808E5,1.2304023E7,1.1784E5,4.95416E5,5.60202E5,6.4072E4,7.7797E4,7.48243E5,2.9259E4,1.1852E4,3.85472E5,4.6605E4,9.7183E4,1.206E3,1.06787E5,2.8765E4,6.33391E5,6.6732E5,7.81674E5,7.05232E5,5.803545E6,1.303242E6,3.16739E5,2.50612E5,1.9226E4,6.2975E4,4.71431E5,6.5715E4,5.65427E5,3.276675E6,2.6606E4,1.7234E4,3.3442E4,2.82554E5,1.523524E6,1.782047E6,2.3034E4,6.3486E4,4.9773E4,5.01673E5,1.592387E6,8.02493E5,7.635939E6,1.318043E6,3.98602E5,9.8298E5,1.2563289E7,5.31274E6,5.62662E5,6.47999E5,4.2773E4,6.10287E5,5.72132E5,8.9777E4,9.74485E5,6.638E4,3.5081E4,3.2674E4,2.10128E5,7.8092E4,1.67E2,2.9651E4],"tree_param":{"num_deleted":"0","num_feature":"9","num_nodes":"127","size_leaf_vector":"0"}},{"base_weights":[-2.6681889E-2,-6.4432465E-2,8.315049E-3,-7.1540445E-2,-4.1283447E-2,-5.4335357E-3,1.8339917E-2,-8.803457E-2,-6.696545E-2,-4.488259E-2,-2.2796206E-2,-2.4781978E-2,6.0579423E-5,-1.1101165E-2,2.0086322E-2,-5.3668294E-2,-9.1461435E-2,-1.9176198E-2,-7.005237E-2,-2.6993487E-2,-5.0293755E-2,-1.1708295E-2,-3.2360442E-2,-1.3994658E-2,-4.0139675E-2,7.5113894E-3,-2.3094233E-2,-2.4284765E-2,3.3194244E-2,2.4499113E-2,4.963803E-3,-9.776186E-2,2.5522608E-2,-3.1949002E-2,-9.528027E-2,5.055699E-2,-2.354891E-2,-2.083708E-2,-7.258066E-2,-3.5391808E-2,-1.6598878E-2,-5.930685E-2,-3.6521666E-2,-2.0844962E-2,-5.072313E-3,-3.9775006E-2,-7.3619643E-3,-3.409382E-2,-6.8646115E-3,-5.0956346E-2,-3.5943568E-2,-1.8572336E-2,1.2929169E-2,-4.1727744E-2,-1.35474885E-2,2.8885338E-3,-6.1240952E-2,-1.0087487E-1,4.0667504E-2,2.9269205E-2,-9.3624825E-3,-3.4197982E-2,2.6460394E-2,-3.4423705E-2,-1.700838E-2,1.9502688E-2,-3.760971E-3,-2.7415086E-2,7.176574E-3,-3.5559695E-2,-2.6464107E-2,2.2761365E-2,-3.3976197E-2,-5.9990124E-3,-1.912247E-2,1.3985545E-2,-7.7815787E-3,-2.310011E-2,-1.5820479E-2,-6.82945E-3,-1.21848425E-2,-3.2668812E-3,-6.4134793E-3,-1.0783686E-2,-1.9555679E-2,-6.1758044E-3,-1.164529E-2,-1.5976153E-3,-7.7088573E-3,-2.8547756E-3,1.8954622E-3,-1.4762943E-2,-8.4239915E-3,3.928566E-3,-4.7246176E-3,-8.514172E-3,-1.9848844E-2,-5.2140225E-3,6.641009E-4,-1.8646907E-2,-1.2002677E-2,-8.391304E-3,-1.30456425E-2,-1.2345589E-2,-3.3601476E-3,5.0109355E-3,-9.778163E-3,-1.4940532E-2,-1.0696439E-2,-1.2883886E-3,-8.226382E-3,-3.433915E-3,8.691315E-3,-1.5179385E-2,-4.1498445E-2,-4.23924E-2,-2.6101965E-4,6.7764134E-3,1.9098323E-2,6.703802E-3,1.2275087E-2,-1.3191626E-2,4.6554133E-3,-5.8886935E-3,-1.6325306E-2,-1.9048656E-4,1.05500715E-2],"categories":[],"categories_nodes":[],"categories_segments":[],"categories_sizes":[],"default_left":[0,0,0,0,0,0,0,0,0,0,0,0,0,0,0,0,0,0,0,0,0,0,0,0,0,0,0,0,0,0,0,0,0,0,0,0,0,0,0,0,0,0,0,0,0,0,0,0,0,0,0,0,0,0,0,0,0,0,0,0,0,0,0,0,0,0,0,0,0,0,0,0,0,0,0,0,0,0,0,0,0,0,0,0,0,0,0,0,0,0,0,0,0,0,0,0,0,0,0,0,0,0,0,0,0,0,0,0,0,0,0,0,0,0,0,0,0,0,0,0,0,0,0,0,0,0,0],"id":8,"left_children":[1,3,5,7,9,11,13,15,17,19,21,23,25,27,29,31,33,35,37,39,41,43,45,47,49,51,53,55,57,59,61,63,65,67,69,71,73,75,77,79,81,83,85,87,89,91,93,95,97,99,101,103,105,107,109,111,113,115,117,119,121,123,125,-1,-1,-1,-1,-1,-1,-1,-1,-1,-1,-1,-1,-1,-1,-1,-1,-1,-1,-1,-1,-1,-1,-1,-1,-1,-1,-1,-1,-1,-1,-1,-1,-1,-1,-1,-1,-1,-1,-1,-1,-1,-1,-1,-1,-1,-1,-1,-1,-1,-1,-1,-1,-1,-1,-1,-1,-1,-1,-1,-1,-1,-1,-1,-1],"loss_changes":[9.470134E4,5.674047E3,5.1267803E3,1.9908594E3,5.390205E2,1.667394E3,1.106043E3,6.746719E2,3.0468984E3,6.563877E2,1.3999384E2,5.746919E2,2.1076038E3,7.0344696E2,1.3551426E3,1.8138544E3,1.1839141E3,3.8212595E2,2.4140703E3,1.3747095E2,6.4622266E2,3.7067062E1,1.3136896E2,2.920139E2,6.4960205E1,1.3060969E3,5.290491E2,9.32218E2,2.7682724E2,2.53913E3,3.861647E3,2.3272192E2,2.792079E2,1.0430964E3,8.0433984E2,3.0664395E2,1.6836157E2,3.2621957E2,1.6185312E3,5.7457886E1,1.9202545E1,4.321504E2,7.534619E1,1.9365326E1,1.7925102E1,6.031311E1,2.7816772E1,9.775763E1,1.4358493E2,4.9046875E1,6.200476E1,2.6458582E2,1.3147704E3,4.9400513E1,2.5244531E2,2.000154E2,3.2270764E2,5.898654E1,1.08791046E2,1.111127E3,1.6714393E3,4.7887573E2,6.986362E2,0E0,0E0,0E0,0E0,0E0,0E0,0E0,0E0,0E0,0E0,0E0,0E0,0E0,0E0,0E0,0E0,0E0,0E0,0E0,0E0,0E0,0E0,0E0,0E0,0E0,0E0,0E0,0E0,0E0,0E0,0E0,0E0,0E0,0E0,0E0,0E0,0E0,0E0,0E0,0E0,0E0,0E0,0E0,0E0,0E0,0E0,0E0,0E0,0E0,0E0,0E0,0E0,0E0,0E0,0E0,0E0,0E0,0E0,0E0,0E0,0E0,0E0,0E0,0E0],"parents":[2147483647,0,0,1,1,2,2,3,3,4,4,5,5,6,6,7,7,8,8,9,9,10,10,11,11,12,12,13,13,14,14,15,15,16,16,17,17,18,18,19,19,20,20,21,21,22,22,23,23,24,24,25,25,26,26,27,27,28,28,29,29,30,30,31,31,32,32,33,33,34,34,35,35,36,36,37,37,38,38,39,39,40,40,41,41,42,42,43,43,44,44,45,45,46,46,47,47,48,48,49,49,50,50,51,51,52,52,53,53,54,54,55,55,56,56,57,57,58,58,59,59,60,60,61,61,62,62],"right_children":[2,4,6,8,10,12,14,16,18,20,22,24,26,28,30,32,34,36,38,40,42,44,46,48,50,52,54,56,58,60,62,64,66,68,70,72,74,76,78,80,82,84,86,88,90,92,94,96,98,100,102,104,106,108,110,112,114,116,118,120,122,124,126,-1,-1,-1,-1,-1,-1,-1,-1,-1,-1,-1,-1,-1,-1,-1,-1,-1,-1,-1,-1,-1,-1,-1,-1,-1,-1,-1,-1,-1,-1,-1,-1,-1,-1,-1,-1,-1,-1,-1,-1,-1,-1,-1,-1,-1,-1,-1,-1,-1,-1,-1,-1,-1,-1,-1,-1,-1,-1,-1,-1,-1,-1,-1,-1],"split_conditions":[1.2894807E-3,-4.1680686E-2,8.390236E-2,-2.6458478E-1,6.318345E-2,-2.2389408E-2,-1.4514041E-1,-6.390135E-1,-2.9464102E-1,-7.42802E-2,-2.2389408E-2,5.1297087E-2,1.0138439E-1,2.5823784E-1,2.511805E-1,-6.379123E-1,-6.385227E-1,-6.390135E-1,-3.0343255E-1,2.7866045E-3,-1.3200647E-2,-1.0691308E-1,1.7821603E-1,-1.2206647E-1,-1.3612792E-1,-2.5483642E-2,0E0,2.0656149E-1,-1.3912132E-1,2.6592773E-1,2.5807014E-1,-7.9437053E-1,-7.7482283E-1,-6.379123E-1,-4.3649867E-1,-8.851397E-2,-8.661702E-2,-6.385227E-1,1.12700695E-2,-1.6523147E-1,5.6251455E-3,-7.0349164E-2,-6.643172E-2,-2.8639066E-1,1.3964385E-1,-1.3200647E-2,-4.1703954E-2,9.3911E-2,2.4131423E-2,1.5293305E-1,-4.1686557E-2,-1.0926621E-1,1.4219005E-1,1.0308784E-1,1.5297697E-1,1.7120284E-1,5.912529E-1,3.0125648E-1,3.9846978E-1,1.616585E-1,2.3825333E-1,3.3604053E-1,2.4431385E-1,-3.4423705E-2,-1.700838E-2,1.9502688E-2,-3.760971E-3,-2.7415086E-2,7.176574E-3,-3.5559695E-2,-2.6464107E-2,2.2761365E-2,-3.3976197E-2,-5.9990124E-3,-1.912247E-2,1.3985545E-2,-7.7815787E-3,-2.310011E-2,-1.5820479E-2,-6.82945E-3,-1.21848425E-2,-3.2668812E-3,-6.4134793E-3,-1.0783686E-2,-1.9555679E-2,-6.1758044E-3,-1.164529E-2,-1.5976153E-3,-7.7088573E-3,-2.8547756E-3,1.8954622E-3,-1.4762943E-2,-8.4239915E-3,3.928566E-3,-4.7246176E-3,-8.514172E-3,-1.9848844E-2,-5.2140225E-3,6.641009E-4,-1.8646907E-2,-1.2002677E-2,-8.391304E-3,-1.30456425E-2,-1.2345589E-2,-3.3601476E-3,5.0109355E-3,-9.778163E-3,-1.4940532E-2,-1.0696439E-2,-1.2883886E-3,-8.226382E-3,-3.433915E-3,8.691315E-3,-1.5179385E-2,-4.1498445E-2,-4.23924E-2,-2.6101965E-4,6.7764134E-3,1.9098323E-2,6.703802E-3,1.2275087E-2,-1.3191626E-2,4.6554133E-3,-5.8886935E-3,-1.6325306E-2,-1.9048656E-4,1.05500715E-2],"split_indices":[0,0,0,0,7,8,7,8,8,7,8,7,8,1,7,0,7,8,7,8,0,6,7,8,8,7,7,4,2,8,0,0,8,0,0,2,2,7,8,7,2,8,8,8,7,0,2,1,0,7,6,7,7,4,8,0,8,0,1,0,0,7,4,0,0,0,0,0,0,0,0,0,0,0,0,0,0,0,0,0,0,0,0,0,0,0,0,0,0,0,0,0,0,0,0,0,0,0,0,0,0,0,0,0,0,0,0,0,0,0,0,0,0,0,0,0,0,0,0,0,0,0,0,0,0,0,0],"split_type":[0,0,0,0,0,0,0,0,0,0,0,0,0,0,0,0,0,0,0,0,0,0,0,0,0,0,0,0,0,0,0,0,0,0,0,0,0,0,0,0,0,0,0,0,0,0,0,0,0,0,0,0,0,0,0,0,0,0,0,0,0,0,0,0,0,0,0,0,0,0,0,0,0,0,0,0,0,0,0,0,0,0,0,0,0,0,0,0,0,0,0,0,0,0,0,0,0,0,0,0,0,0,0,0,0,0,0,0,0,0,0,0,0,0,0,0,0,0,0,0,0,0,0,0,0,0,0],"sum_hessian":[7.168075E7,3.4483748E7,3.719701E7,2.638282E7,8.100929E6,1.5685358E7,2.1511648E7,5.728814E6,2.0654004E7,6.78082E6,1.320109E6,3.468932E6,1.2216426E7,1.204586E6,2.0307064E7,5.19458E5,5.209356E6,1.253183E6,1.9400822E7,1.574752E6,5.206068E6,6.11358E5,7.08751E5,2.037667E6,1.431265E6,9.242389E6,2.974037E6,9.28298E5,2.76288E5,1.5719941E7,4.587122E6,3.3367E5,1.85788E5,3.14121E5,4.895235E6,7.3945E4,1.179238E6,9.47962E5,1.845286E7,8.71014E5,7.03738E5,3.146711E6,2.059357E6,2.57214E5,3.54144E5,5.46622E5,1.62129E5,5.33568E5,1.504099E6,4.00039E5,1.031226E6,1.58955E6,7.652839E6,1.007526E6,1.966511E6,5.34955E5,3.93343E5,1.4587E4,2.61701E5,1.3778903E7,1.941038E6,1.62562E6,2.961502E6,2.36048E5,9.7622E4,9.1184E4,9.4604E4,1.52206E5,1.61915E5,1.140965E6,3.75427E6,6.4048E4,9.897E3,1.083482E6,9.5756E4,6.6651E4,8.81311E5,1.5091854E7,3.361006E6,2.54911E5,6.16103E5,3.20675E5,3.83063E5,6.32653E5,2.514058E6,2.59343E5,1.800014E6,6.1255E4,1.95959E5,2.54759E5,9.9385E4,3.02545E5,2.44077E5,4.7141E4,1.14988E5,4.52886E5,8.0682E4,6.96887E5,8.07212E5,1.97736E5,2.02303E5,5.01303E5,5.29923E5,3.91229E5,1.198321E6,7.066974E6,5.85865E5,4.32503E5,5.75023E5,1.17972E6,7.86791E5,3.45222E5,1.89733E5,3.45626E5,4.7717E4,1.0387E4,4.2E3,1.46507E5,1.15194E5,8.642166E6,5.136737E6,8.11799E5,1.129239E6,9.44835E5,6.80785E5,7.20196E5,2.241306E6],"tree_param":{"num_deleted":"0","num_feature":"9","num_nodes":"127","size_leaf_vector":"0"}},{"base_weights":[-1.8677324E-2,-4.4049513E-2,7.1742004E-3,-5.353464E-2,-3.341088E-2,-7.562528E-3,1.0969869E-2,-6.771675E-2,-5.096729E-2,-3.8453806E-2,-2.1781113E-2,-1.0639793E-2,2.4872303E-2,-8.83004E-3,1.4903357E-2,-3.8384393E-2,-7.137427E-2,7.159633E-3,-5.3474676E-2,-4.4547766E-2,-2.0323938E-2,9.307448E-3,-2.367741E-2,-1.0558012E-3,-2.1408718E-2,3.0318169E-2,-4.370568E-2,-1.2937439E-2,2.9258816E-2,-1.9311313E-2,1.5906733E-2,-7.7776715E-2,1.925093E-2,-2.0408224E-2,-7.5701594E-2,7.196264E-2,-1.5159004E-3,1.258408E-2,-5.5647995E-2,-1.9295936E-2,-4.9739007E-2,7.088549E-3,-2.2802975E-2,-1.0378902E-2,4.209111E-2,-2.4894208E-2,1.4399277E-3,-6.3519545E-2,8.3086954E-4,-5.5212673E-2,-1.8055405E-2,2.3686845E-2,5.5443536E-2,-8.5098475E-2,2.8392196E-2,3.0187038E-3,-2.2725271E-2,4.6950053E-2,-2.2618614E-2,-9.285747E-2,-1.3577147E-2,1.7905707E-2,3.313271E-4,-2.671287E-2,-1.4668123E-2,7.859847E-3,-4.0044095E-2,-2.5699314E-2,9.969148E-3,-2.6846394E-2,-2.0592544E-2,3.6389884E-2,9.353842E-3,5.267894E-2,-1.4639674E-3,2.1692062E-2,7.047939E-4,-1.9947693E-2,-1.5305862E-2,-8.469929E-3,7.7263045E-5,-5.7411185E-3,-1.6730232E-2,-2.4775728E-3,9.985719E-3,-7.6672947E-3,-2.0554082E-3,2.8186368E-3,-6.044063E-3,1.7768199E-2,-2.169053E-4,-8.81543E-3,-6.0526347E-3,3.845101E-3,-1.5917763E-2,-1.1452987E-2,-5.0139688E-2,-1.23723345E-2,7.861983E-4,-1.5485855E-2,-3.9091755E-2,-7.5264922E-3,-9.788092E-4,9.798275E-3,-3.4246882E-3,1.9753404E-2,9.294349E-3,3.3605717E-2,-2.6641486E-2,3.684287E-4,2.2672566E-2,-9.440559E-3,1.7945989E-3,-5.881424E-3,-1.9613424E-2,1.8671343E-2,8.951812E-3,-1.5604106E-2,1.5643597E-2,-1.9561121E-2,-4.460877E-2,-2.4409151E-4,-6.7479857E-3,6.055881E-3,-3.4367393E-3,-1.1727829E-2,5.6400867E-3],"categories":[],"categories_nodes":[],"categories_segments":[],"categories_sizes":[],"default_left":[0,0,0,0,0,0,0,0,0,0,0,0,0,0,0,0,0,0,0,0,0,0,0,0,0,0,0,0,0,0,0,0,0,0,0,0,0,0,0,0,0,0,0,0,0,0,0,0,0,0,0,0,0,0,0,0,0,0,0,0,0,0,0,0,0,0,0,0,0,0,0,0,0,0,0,0,0,0,0,0,0,0,0,0,0,0,0,0,0,0,0,0,0,0,0,0,0,0,0,0,0,0,0,0,0,0,0,0,0,0,0,0,0,0,0,0,0,0,0,0,0,0,0,0,0,0,0],"id":9,"left_children":[1,3,5,7,9,11,13,15,17,19,21,23,25,27,29,31,33,35,37,39,41,43,45,47,49,51,53,55,57,59,61,63,65,67,69,71,73,75,77,79,81,83,85,87,89,91,93,95,97,99,101,103,105,107,109,111,113,115,117,119,121,123,125,-1,-1,-1,-1,-1,-1,-1,-1,-1,-1,-1,-1,-1,-1,-1,-1,-1,-1,-1,-1,-1,-1,-1,-1,-1,-1,-1,-1,-1,-1,-1,-1,-1,-1,-1,-1,-1,-1,-1,-1,-1,-1,-1,-1,-1,-1,-1,-1,-1,-1,-1,-1,-1,-1,-1,-1,-1,-1,-1,-1,-1,-1,-1,-1],"loss_changes":[4.7016113E4,3.6504453E3,1.9859982E3,6.9633594E2,1.0000117E3,7.2580994E2,2.198872E3,3.1448926E2,2.3601133E3,1.3140488E3,3.0404395E2,6.854887E2,2.353364E2,7.320521E2,8.086089E2,7.378848E2,5.748369E2,3.7646875E2,2.2286797E3,1.1668984E3,2.033324E2,1.9135745E2,1.4856177E2,4.1414417E2,3.5452075E2,9.726465E1,1.3835309E2,6.596531E2,4.1803052E2,2.8300168E2,7.1245215E2,6.2815796E1,1.4003593E2,7.1399567E2,2.3382031E2,1.5908026E2,3.518662E2,3.0223676E2,7.5434375E2,2.6526227E2,1.3621543E3,9.9768524E1,1.2057263E2,3.5783188E1,8.1616714E1,9.8241455E1,1.392637E2,2.7054022E2,2.568619E2,7.614984E1,2.9601068E2,1.4549753E2,3.1014282E1,2.1527191E1,2.1671907E1,1.64114E2,3.4843933E2,8.884595E1,2.545591E2,7.493674E1,7.084395E1,1.3579653E3,1.8951385E3,0E0,0E0,0E0,0E0,0E0,0E0,0E0,0E0,0E0,0E0,0E0,0E0,0E0,0E0,0E0,0E0,0E0,0E0,0E0,0E0,0E0,0E0,0E0,0E0,0E0,0E0,0E0,0E0,0E0,0E0,0E0,0E0,0E0,0E0,0E0,0E0,0E0,0E0,0E0,0E0,0E0,0E0,0E0,0E0,0E0,0E0,0E0,0E0,0E0,0E0,0E0,0E0,0E0,0E0,0E0,0E0,0E0,0E0,0E0,0E0,0E0,0E0,0E0,0E0],"parents":[2147483647,0,0,1,1,2,2,3,3,4,4,5,5,6,6,7,7,8,8,9,9,10,10,11,11,12,12,13,13,14,14,15,15,16,16,17,17,18,18,19,19,20,20,21,21,22,22,23,23,24,24,25,25,26,26,27,27,28,28,29,29,30,30,31,31,32,32,33,33,34,34,35,35,36,36,37,37,38,38,39,39,40,40,41,41,42,42,43,43,44,44,45,45,46,46,47,47,48,48,49,49,50,50,51,51,52,52,53,53,54,54,55,55,56,56,57,57,58,58,59,59,60,60,61,61,62,62],"right_children":[2,4,6,8,10,12,14,16,18,20,22,24,26,28,30,32,34,36,38,40,42,44,46,48,50,52,54,56,58,60,62,64,66,68,70,72,74,76,78,80,82,84,86,88,90,92,94,96,98,100,102,104,106,108,110,112,114,116,118,120,122,124,126,-1,-1,-1,-1,-1,-1,-1,-1,-1,-1,-1,-1,-1,-1,-1,-1,-1,-1,-1,-1,-1,-1,-1,-1,-1,-1,-1,-1,-1,-1,-1,-1,-1,-1,-1,-1,-1,-1,-1,-1,-1,-1,-1,-1,-1,-1,-1,-1,-1,-1,-1,-1,-1,-1,-1,-1,-1,-1,-1,-1,-1,-1,-1,-1],"split_conditions":[9.945364E-3,-9.0916276E-2,-1.5326765E-3,-3.5997388E-1,-8.775631E-3,3.0125648E-1,-7.3337876E-3,-7.7482283E-1,-3.7422022E-1,-7.321284E-3,-1.4834231E-1,6.615882E-2,6.8887466E-1,3.0125648E-1,7.065835E-3,-7.9437053E-1,-7.7678645E-1,-6.390135E-1,-3.9194798E-1,-1.14263356E-1,-1.6162784E-1,-1.3321868E-1,2.3213355E-1,-1.0925505E-1,-2.9464102E-1,5.344907E-1,5.9162813E-1,7.094413E-2,5.3433913E-1,-1.0229688E-1,3.125453E-1,-7.764285E-1,-1.3611463E-1,-7.9437053E-1,-5.0311065E-1,-1.3611463E-1,-6.3806784E-1,-6.385227E-1,-2.1392854E-1,-1.4672316E-2,-1.0926621E-1,-1.3908474E-1,1.4218786E-1,-3.455798E-1,-2.8635127E-2,-5.88608E-3,0E0,3.0120906E-1,-7.204239E-2,4.6703017E-1,1.276456E-1,4.671697E-1,6.8906635E-1,2.8261527E-1,5.916881E-1,-3.019164E-2,3.8117534E-1,3.646778E-1,4.4068256E-1,3.127818E-1,6.0170393E-2,3.122446E-1,2.9169205E-1,-2.671287E-2,-1.4668123E-2,7.859847E-3,-4.0044095E-2,-2.5699314E-2,9.969148E-3,-2.6846394E-2,-2.0592544E-2,3.6389884E-2,9.353842E-3,5.267894E-2,-1.4639674E-3,2.1692062E-2,7.047939E-4,-1.9947693E-2,-1.5305862E-2,-8.469929E-3,7.7263045E-5,-5.7411185E-3,-1.6730232E-2,-2.4775728E-3,9.985719E-3,-7.6672947E-3,-2.0554082E-3,2.8186368E-3,-6.044063E-3,1.7768199E-2,-2.169053E-4,-8.81543E-3,-6.0526347E-3,3.845101E-3,-1.5917763E-2,-1.1452987E-2,-5.0139688E-2,-1.23723345E-2,7.861983E-4,-1.5485855E-2,-3.9091755E-2,-7.5264922E-3,-9.788092E-4,9.798275E-3,-3.4246882E-3,1.9753404E-2,9.294349E-3,3.3605717E-2,-2.6641486E-2,3.684287E-4,2.2672566E-2,-9.440559E-3,1.7945989E-3,-5.881424E-3,-1.9613424E-2,1.8671343E-2,8.951812E-3,-1.5604106E-2,1.5643597E-2,-1.9561121E-2,-4.460877E-2,-2.4409151E-4,-6.7479857E-3,6.055881E-3,-3.4367393E-3,-1.1727829E-2,5.6400867E-3],"split_indices":[0,0,8,0,1,0,7,8,4,2,2,5,7,0,2,0,7,8,3,8,1,8,7,1,8,0,0,8,6,2,7,3,1,0,0,1,2,7,0,7,7,7,8,4,0,0,0,2,2,1,0,3,1,3,2,1,4,4,1,1,3,8,0,0,0,0,0,0,0,0,0,0,0,0,0,0,0,0,0,0,0,0,0,0,0,0,0,0,0,0,0,0,0,0,0,0,0,0,0,0,0,0,0,0,0,0,0,0,0,0,0,0,0,0,0,0,0,0,0,0,0,0,0,0,0,0,0],"split_type":[0,0,0,0,0,0,0,0,0,0,0,0,0,0,0,0,0,0,0,0,0,0,0,0,0,0,0,0,0,0,0,0,0,0,0,0,0,0,0,0,0,0,0,0,0,0,0,0,0,0,0,0,0,0,0,0,0,0,0,0,0,0,0,0,0,0,0,0,0,0,0,0,0,0,0,0,0,0,0,0,0,0,0,0,0,0,0,0,0,0,0,0,0,0,0,0,0,0,0,0,0,0,0,0,0,0,0,0,0,0,0,0,0,0,0,0,0,0,0,0,0,0,0,0,0,0,0],"sum_hessian":[7.168075E7,3.617576E7,3.550499E7,1.9124682E7,1.705108E7,7.27187E6,2.8233124E7,2.931422E6,1.619326E7,1.1893705E7,5.157374E6,6.641734E6,6.30136E5,4.679257E6,2.3553868E7,3.25002E5,2.60642E6,6.69633E5,1.5523627E7,8.901618E6,2.992087E6,2.96497E5,4.860877E6,3.514206E6,3.127528E6,5.83778E5,4.6358E4,4.223777E6,4.5548E5,6.71058E5,2.2882808E7,1.93054E5,1.31948E5,2.03982E5,2.402438E6,7.9062E4,5.90571E5,4.94457E5,1.502917E7,1.51793E6,7.383688E6,2.48147E5,2.74394E6,1.85254E5,1.11243E5,4.636275E6,2.24602E5,1.03031E5,3.411175E6,2.82247E5,2.845281E6,4.61877E5,1.21901E5,2.945E4,1.6908E4,1.605876E6,2.617901E6,3.39652E5,1.15828E5,4.8535E4,6.22523E5,2.0280036E7,2.602774E6,1.3888E5,5.4174E4,1.26207E5,5.741E3,9.2025E4,1.11957E5,8.13608E5,1.58883E6,3.5778E4,4.3284E4,1.1007E4,5.79564E5,7.2338E4,4.22119E5,4.495759E6,1.0533411E7,1.041774E6,4.76156E5,1.215169E6,6.168519E6,1.56478E5,9.1669E4,2.339869E6,4.04071E5,6.1253E4,1.24001E5,7.9445E4,3.1798E4,2.375577E6,2.260698E6,1.85813E5,3.8789E4,8.2784E4,2.0247E4,1.39193E5,3.271982E6,2.6936E5,1.2887E4,1.928441E6,9.1684E5,3.67838E5,9.4039E4,8.5532E4,3.6369E4,5.43E2,2.8907E4,1.0731E4,6.177E3,1.27065E5,1.478811E6,2.439431E6,1.7847E5,1.7938E5,1.60272E5,8.314E4,3.2688E4,3.2461E4,1.6074E4,2.56024E5,3.66499E5,1.8818378E7,1.461657E6,8.30333E5,1.772441E6],"tree_param":{"num_deleted":"0","num_feature":"9","num_nodes":"127","size_leaf_vector":"0"}},{"base_weights":[-1.3074128E-2,-2.9928384E-2,6.394388E-3,-3.5269123E-2,-1.7814308E-2,2.6511229E-3,1.4028055E-2,-3.8239658E-2,-2.1745935E-2,-2.3037063E-2,-1.492299E-2,5.3534987E-3,-3.5144925E-2,1.5471405E-2,-2.1616595E-2,-4.155114E-2,-2.1059787E-2,-9.980091E-3,-3.5328176E-2,-4.2247847E-3,-2.638669E-2,-1.3598764E-2,-2.365291E-2,8.7397965E-3,-2.4957212E-2,-2.39397E-2,-4.7624618E-2,1.8239599E-2,-8.281811E-3,-7.495134E-2,2.502934E-2,-4.176628E-2,5.7112943E-2,-1.336597E-2,-3.9549056E-2,-3.2042574E-2,-5.643383E-3,-3.9263424E-2,2.859158E-2,-1.2924383E-2,1.8720997E-3,-7.815615E-3,-3.1134473E-2,-1.2327615E-2,-2.0047491E-2,-7.2692465E-3,-3.1123802E-2,2.3517911E-3,2.0659337E-2,-2.0017073E-2,-5.1775858E-2,-2.2179924E-3,-2.9155722E-2,-7.394552E-2,-3.998071E-2,1.4240415E-2,2.933701E-2,-3.4810763E-2,2.1194898E-2,8.38792E-2,-8.271297E-2,-6.220981E-3,4.2387348E-2,-8.214187E-3,-1.2972932E-2,3.700107E-2,7.4849497E-3,-1.2297056E-2,-2.1009387E-3,-1.2952135E-2,3.7390876E-3,-1.9145026E-3,-1.4037416E-2,-2.1217267E-3,1.1743969E-2,-1.2613383E-2,8.844561E-3,2.396868E-2,5.8201584E-4,2.8832986E-3,-5.952545E-3,-2.741526E-3,5.462759E-3,5.06674E-3,-3.4003835E-3,-9.976286E-3,-1.2160769E-3,-4.5854137E-3,-1.9963013E-3,-1.9731806E-3,-7.877321E-3,-9.189746E-4,-4.3712896E-3,-1.6680881E-2,-8.754381E-3,1.5949702E-3,-4.471698E-3,7.621493E-3,-2.4422596E-3,-7.4500113E-4,-7.2194864E-3,-1.2975032E-2,-2.5000554E-2,4.1629688E-4,-2.3126155E-2,-6.1379713E-3,-1.4502998E-2,-1.8838283E-2,-4.53865E-2,-8.213641E-3,-1.7596541E-2,5.4228636E-3,-6.1256415E-3,8.055208E-3,1.3115391E-2,-8.255819E-3,-2.4205834E-2,1.9809117E-3,9.793207E-3,-6.435787E-2,2.8303461E-2,-1.5289447E-2,-3.690422E-2,9.607438E-3,-9.247457E-3,7.6878755E-3,1.5249601E-2],"categories":[],"categories_nodes":[],"categories_segments":[],"categories_sizes":[],"default_left":[0,0,0,0,0,0,0,0,0,0,0,0,0,0,0,0,0,0,0,0,0,0,0,0,0,0,0,0,0,0,0,0,0,0,0,0,0,0,0,0,0,0,0,0,0,0,0,0,0,0,0,0,0,0,0,0,0,0,0,0,0,0,0,0,0,0,0,0,0,0,0,0,0,0,0,0,0,0,0,0,0,0,0,0,0,0,0,0,0,0,0,0,0,0,0,0,0,0,0,0,0,0,0,0,0,0,0,0,0,0,0,0,0,0,0,0,0,0,0,0,0,0,0,0,0,0,0],"id":10,"left_children":[1,3,5,7,9,11,13,15,17,19,21,23,25,27,29,31,33,35,37,39,41,43,45,47,49,51,53,55,57,59,61,63,65,67,69,71,73,75,77,79,81,83,85,87,89,91,93,95,97,99,101,103,105,107,109,111,113,115,117,119,121,123,125,-1,-1,-1,-1,-1,-1,-1,-1,-1,-1,-1,-1,-1,-1,-1,-1,-1,-1,-1,-1,-1,-1,-1,-1,-1,-1,-1,-1,-1,-1,-1,-1,-1,-1,-1,-1,-1,-1,-1,-1,-1,-1,-1,-1,-1,-1,-1,-1,-1,-1,-1,-1,-1,-1,-1,-1,-1,-1,-1,-1,-1,-1,-1,-1],"loss_changes":[2.3520414E4,2.4856992E3,9.504231E2,1.0711406E3,1.7751587E2,2.2794678E3,5.630215E2,1.243748E3,7.674358E2,2.6395947E2,8.747302E1,2.1378184E3,2.0824316E2,6.915737E2,1.059552E3,3.890703E2,5.0257947E2,2.4620023E2,5.6070435E2,3.3581257E1,3.135171E2,5.3856445E1,1.2198401E2,1.4265238E3,2.7730493E2,8.890268E1,1.417439E2,4.1805933E2,8.584581E2,2.4495984E2,1.2323903E2,3.8855664E2,8.49422E1,4.38514E2,1.9572668E2,1.5998221E2,1.3764601E2,4.014702E2,1.7676285E2,4.0667824E1,6.695994E1,6.2938824E1,1.6256372E2,9.2072815E1,9.049762E1,9.585506E0,3.2546326E1,6.240973E2,8.9347E2,1.2544653E2,8.7599304E1,4.1015804E1,1.0557037E2,1.367392E2,1.2848383E2,9.205825E2,8.9223145E1,1.932638E2,8.6874054E1,2.8933098E1,2.4238196E2,7.634478E1,2.0672577E1,0E0,0E0,0E0,0E0,0E0,0E0,0E0,0E0,0E0,0E0,0E0,0E0,0E0,0E0,0E0,0E0,0E0,0E0,0E0,0E0,0E0,0E0,0E0,0E0,0E0,0E0,0E0,0E0,0E0,0E0,0E0,0E0,0E0,0E0,0E0,0E0,0E0,0E0,0E0,0E0,0E0,0E0,0E0,0E0,0E0,0E0,0E0,0E0,0E0,0E0,0E0,0E0,0E0,0E0,0E0,0E0,0E0,0E0,0E0,0E0,0E0,0E0,0E0,0E0],"parents":[2147483647,0,0,1,1,2,2,3,3,4,4,5,5,6,6,7,7,8,8,9,9,10,10,11,11,12,12,13,13,14,14,15,15,16,16,17,17,18,18,19,19,20,20,21,21,22,22,23,23,24,24,25,25,26,26,27,27,28,28,29,29,30,30,31,31,32,32,33,33,34,34,35,35,36,36,37,37,38,38,39,39,40,40,41,41,42,42,43,43,44,44,45,45,46,46,47,47,48,48,49,49,50,50,51,51,52,52,53,53,54,54,55,55,56,56,57,57,58,58,59,59,60,60,61,61,62,62],"right_children":[2,4,6,8,10,12,14,16,18,20,22,24,26,28,30,32,34,36,38,40,42,44,46,48,50,52,54,56,58,60,62,64,66,68,70,72,74,76,78,80,82,84,86,88,90,92,94,96,98,100,102,104,106,108,110,112,114,116,118,120,122,124,126,-1,-1,-1,-1,-1,-1,-1,-1,-1,-1,-1,-1,-1,-1,-1,-1,-1,-1,-1,-1,-1,-1,-1,-1,-1,-1,-1,-1,-1,-1,-1,-1,-1,-1,-1,-1,-1,-1,-1,-1,-1,-1,-1,-1,-1,-1,-1,-1,-1,-1,-1,-1,-1,-1,-1,-1,-1,-1,-1,-1,-1,-1,-1,-1],"split_conditions":[2.1314973E-2,-3.9999336E-2,1.6794296E-1,7.077924E-3,-1.6334185E-2,1.8947662E-1,5.912529E-1,5.6242947E-3,-6.643172E-2,-5.9083655E-2,3.9648477E-2,1.7467758E-1,2.381441E-1,4.4098172E-1,5.344907E-1,1.108376E-1,-7.6046474E-2,-3.0294287E-1,5.2812707E-2,-1.1946828E-1,-5.3682134E-2,3.5422582E-2,1.2894807E-3,9.388316E-2,2.1612473E-1,2.5547078E-2,1.7821603E-1,3.2392365E-1,3.985957E-1,2.3809253E-1,5.919592E-1,-3.742966E-1,-3.7446168E-1,-2.945329E-1,2.411611E-2,-5.034698E-1,4.6678075E-1,7.0934474E-2,-2.0031415E-1,-2.865228E-1,2.9611208E-2,-2.3433436E-1,1.0326427E-1,5.7188687E-3,1.2894807E-3,-2.7049549E-2,-1.1428737E-1,1.16883956E-1,1.6171597E-1,-1.0271649E-2,4.4059676E-1,2.5823784E-1,2.3804133E-1,3.6476058E-1,7.564415E-2,3.2398754E-1,5.344907E-1,6.8887466E-1,4.9674687E-1,-5.036241E-1,6.881761E-1,6.889214E-1,6.8906635E-1,-8.214187E-3,-1.2972932E-2,3.700107E-2,7.4849497E-3,-1.2297056E-2,-2.1009387E-3,-1.2952135E-2,3.7390876E-3,-1.9145026E-3,-1.4037416E-2,-2.1217267E-3,1.1743969E-2,-1.2613383E-2,8.844561E-3,2.396868E-2,5.8201584E-4,2.8832986E-3,-5.952545E-3,-2.741526E-3,5.462759E-3,5.06674E-3,-3.4003835E-3,-9.976286E-3,-1.2160769E-3,-4.5854137E-3,-1.9963013E-3,-1.9731806E-3,-7.877321E-3,-9.189746E-4,-4.3712896E-3,-1.6680881E-2,-8.754381E-3,1.5949702E-3,-4.471698E-3,7.621493E-3,-2.4422596E-3,-7.4500113E-4,-7.2194864E-3,-1.2975032E-2,-2.5000554E-2,4.1629688E-4,-2.3126155E-2,-6.1379713E-3,-1.4502998E-2,-1.8838283E-2,-4.53865E-2,-8.213641E-3,-1.7596541E-2,5.4228636E-3,-6.1256415E-3,8.055208E-3,1.3115391E-2,-8.255819E-3,-2.4205834E-2,1.9809117E-3,9.793207E-3,-6.435787E-2,2.8303461E-2,-1.5289447E-2,-3.690422E-2,9.607438E-3,-9.247457E-3,7.6878755E-3,1.5249601E-2],"split_indices":[0,0,0,7,0,3,8,8,8,1,2,6,3,7,0,1,7,0,1,7,2,1,0,0,2,2,7,0,2,4,1,7,2,0,2,4,7,2,2,7,6,8,8,0,0,1,1,7,7,3,4,1,7,1,2,4,0,7,2,2,8,6,1,0,0,0,0,0,0,0,0,0,0,0,0,0,0,0,0,0,0,0,0,0,0,0,0,0,0,0,0,0,0,0,0,0,0,0,0,0,0,0,0,0,0,0,0,0,0,0,0,0,0,0,0,0,0,0,0,0,0,0,0,0,0,0,0],"split_type":[0,0,0,0,0,0,0,0,0,0,0,0,0,0,0,0,0,0,0,0,0,0,0,0,0,0,0,0,0,0,0,0,0,0,0,0,0,0,0,0,0,0,0,0,0,0,0,0,0,0,0,0,0,0,0,0,0,0,0,0,0,0,0,0,0,0,0,0,0,0,0,0,0,0,0,0,0,0,0,0,0,0,0,0,0,0,0,0,0,0,0,0,0,0,0,0,0,0,0,0,0,0,0,0,0,0,0,0,0,0,0,0,0,0,0,0,0,0,0,0,0,0,0,0,0,0,0],"sum_hessian":[7.168075E7,3.8419916E7,3.3260838E7,2.6664378E7,1.1755539E7,2.2317278E7,1.094356E7,2.1862096E7,4.802282E6,4.188893E6,7.566646E6,2.0828092E7,1.489185E6,1.0517671E7,4.25889E5,1.8329098E7,3.532998E6,2.573203E6,2.229079E6,6.33124E5,3.555769E6,6.570049E6,9.96597E5,1.8735026E7,2.093067E6,7.8466E5,7.04525E5,9.419881E6,1.09779E6,1.98698E5,2.27191E5,1.8289218E7,3.988E4,2.494839E6,1.038159E6,4.2271E5,2.150493E6,2.099804E6,1.29275E5,2.60878E5,3.72246E5,7.23965E5,2.831804E6,5.488232E6,1.081817E6,3.1212E5,6.84477E5,1.2197862E7,6.537164E6,1.767488E6,3.25579E5,1.51936E5,6.32724E5,1.58554E5,5.45971E5,6.924497E6,2.495384E6,5.77785E5,5.20005E5,9.257E3,1.89441E5,8.113E4,1.46061E5,1.702763E6,1.6586455E7,1.3036E4,2.6844E4,4.67067E5,2.027772E6,9.70524E5,6.7635E4,1.54282E5,2.68428E5,2.084003E6,6.649E4,2.018157E6,8.1647E4,4.4196E4,8.5079E4,6.1271E4,1.99607E5,2.22375E5,1.49871E5,9.0265E4,6.337E5,2.62623E6,2.05574E5,3.607752E6,1.88048E6,3.41372E5,7.40445E5,1.98043E5,1.14077E5,5.0321E4,6.34156E5,1.0409537E7,1.788325E6,5.612369E6,9.24795E5,3.31513E5,1.435975E6,2.56333E5,6.9246E4,1.44956E5,6.98E3,4.35402E5,1.97322E5,1.38576E5,1.9978E4,3.25989E5,2.19982E5,6.234513E6,6.89984E5,2.127555E6,3.67829E5,4.98548E5,7.9237E4,2.28625E5,2.9138E5,3.13E2,8.944E3,1.05966E5,8.3475E4,3.176E4,4.937E4,4.8936E4,9.7125E4],"tree_param":{"num_deleted":"0","num_feature":"9","num_nodes":"127","size_leaf_vector":"0"}},{"base_weights":[-9.151888E-3,-2.2517119E-2,3.2382119E-3,-2.5524596E-2,-1.1907573E-2,-8.586208E-3,6.4316667E-3,-2.7370002E-2,-1.4187154E-2,1.4207128E-2,-1.2739159E-2,4.9974125E-2,-9.304108E-3,-1.5165553E-2,7.734165E-3,-2.8976562E-2,-1.4207964E-2,-5.076203E-3,-2.9806199E-2,3.436719E-2,-9.6884124E-2,-6.902534E-2,-1.2443046E-2,2.5399992E-2,1.3936777E-1,-8.757292E-2,-8.983624E-3,1.03155095E-2,-2.1136854E-2,-1.1455604E-1,7.848922E-3,-1.8721694E-2,-3.0379726E-2,-6.2073045E-3,-2.7262472E-2,-1.4383742E-2,7.367747E-3,-3.6443554E-2,-1.7792735E-2,-3.2986484E-2,5.038307E-2,-3.4092914E-2,-1.3837843E-1,-8.328247E-2,-1.8620158E-2,-1.3530454E-2,8.481652E-4,-4.2693544E-2,5.7334274E-2,1.6444203E-1,-5.2506648E-2,-9.839898E-2,-7.1103796E-3,1.733032E-2,-9.580953E-3,-5.1336493E-3,2.6127264E-2,-2.5552008E-2,1.9149836E-2,-2.2001804E-1,-8.57772E-2,1.0573779E-2,3.3037039E-3,-1.1344502E-2,4.349999E-3,2.7919267E-4,-9.469329E-3,-1.1307759E-2,-4.5820412E-5,-1.2337205E-2,-5.9293336E-3,-2.4918513E-3,-1.1743257E-2,-3.480094E-4,3.6834101E-3,-1.2710584E-2,-5.338287E-3,3.992822E-3,-6.85606E-3,-5.2844193E-2,-7.1086413E-3,1.1159305E-2,3.644023E-2,-3.010189E-2,-1.2098337E-3,-5.3663585E-2,-2.54052E-2,-5.8297113E-2,-2.3789776E-2,-8.667945E-3,2.387266E-2,-3.907276E-3,-1.5283028E-2,5.8834725E-3,-4.437243E-3,-3.4071307E-3,-2.3350144E-2,6.4541227E-3,2.6780667E-2,2.7923478E-2,5.743183E-2,3.6672463E-3,-2.7188918E-2,-6.1362375E-2,-2.7865695E-2,7.163072E-3,-1.3094419E-2,-2.0122128E-3,1.2857908E-2,-1.2646351E-2,-2.6746455E-3,-9.8223705E-3,1.5801436E-3,1.1821908E-2,2.3849998E-3,-2.1373753E-2,-6.07504E-3,2.6957437E-3,9.028923E-3,-2.085128E-2,-7.0589274E-2,-1.8556159E-2,-4.666643E-2,4.4527072E-3,-4.4638794E-3,-4.880044E-3,3.4040664E-3],"categories":[],"categories_nodes":[],"categories_segments":[],"categories_sizes":[],"default_left":[0,0,0,0,0,0,0,0,0,0,0,0,0,0,0,0,0,0,0,0,0,0,0,0,0,0,0,0,0,0,0,0,0,0,0,0,0,0,0,0,0,0,0,0,0,0,0,0,0,0,0,0,0,0,0,0,0,0,0,0,0,0,0,0,0,0,0,0,0,0,0,0,0,0,0,0,0,0,0,0,0,0,0,0,0,0,0,0,0,0,0,0,0,0,0,0,0,0,0,0,0,0,0,0,0,0,0,0,0,0,0,0,0,0,0,0,0,0,0,0,0,0,0,0,0,0,0],"id":11,"left_children":[1,3,5,7,9,11,13,15,17,19,21,23,25,27,29,31,33,35,37,39,41,43,45,47,49,51,53,55,57,59,61,63,65,67,69,71,73,75,77,79,81,83,85,87,89,91,93,95,97,99,101,103,105,107,109,111,113,115,117,119,121,123,125,-1,-1,-1,-1,-1,-1,-1,-1,-1,-1,-1,-1,-1,-1,-1,-1,-1,-1,-1,-1,-1,-1,-1,-1,-1,-1,-1,-1,-1,-1,-1,-1,-1,-1,-1,-1,-1,-1,-1,-1,-1,-1,-1,-1,-1,-1,-1,-1,-1,-1,-1,-1,-1,-1,-1,-1,-1,-1,-1,-1,-1,-1,-1,-1],"loss_changes":[1.1870086E4,1.100293E3,1.4045996E3,5.62125E2,1.6539539E2,3.3253125E2,8.238695E2,4.885957E2,5.352123E2,5.263982E2,1.23019165E2,2.104318E2,1.960044E2,2.534646E2,3.8763525E2,2.9631445E2,2.6252747E2,2.7512616E2,1.10486206E2,2.1460173E2,9.405823E1,2.7757095E1,1.06119385E2,1.6339355E2,9.938211E1,2.7756653E1,1.2232013E2,7.725607E1,2.4005078E2,7.857742E1,3.417765E2,1.572177E3,6.719219E2,2.9708517E2,9.926831E1,2.0450116E2,4.2562553E1,9.862097E1,7.761711E1,5.082995E1,1.5063522E2,2.8607832E1,4.7254852E1,1.3302292E1,8.594946E0,1.2853687E2,1.6294252E2,2.6415104E1,5.8510468E1,3.5177917E1,5.8940644E0,1.641687E1,4.2807713E0,1.06001495E2,1.6494568E2,4.5932938E1,3.7726295E1,2.9465668E2,1.4830406E1,1.2749695E1,3.3954193E1,1.8745114E3,1.6280919E3,0E0,0E0,0E0,0E0,0E0,0E0,0E0,0E0,0E0,0E0,0E0,0E0,0E0,0E0,0E0,0E0,0E0,0E0,0E0,0E0,0E0,0E0,0E0,0E0,0E0,0E0,0E0,0E0,0E0,0E0,0E0,0E0,0E0,0E0,0E0,0E0,0E0,0E0,0E0,0E0,0E0,0E0,0E0,0E0,0E0,0E0,0E0,0E0,0E0,0E0,0E0,0E0,0E0,0E0,0E0,0E0,0E0,0E0,0E0,0E0,0E0,0E0,0E0,0E0],"parents":[2147483647,0,0,1,1,2,2,3,3,4,4,5,5,6,6,7,7,8,8,9,9,10,10,11,11,12,12,13,13,14,14,15,15,16,16,17,17,18,18,19,19,20,20,21,21,22,22,23,23,24,24,25,25,26,26,27,27,28,28,29,29,30,30,31,31,32,32,33,33,34,34,35,35,36,36,37,37,38,38,39,39,40,40,41,41,42,42,43,43,44,44,45,45,46,46,47,47,48,48,49,49,50,50,51,51,52,52,53,53,54,54,55,55,56,56,57,57,58,58,59,59,60,60,61,61,62,62],"right_children":[2,4,6,8,10,12,14,16,18,20,22,24,26,28,30,32,34,36,38,40,42,44,46,48,50,52,54,56,58,60,62,64,66,68,70,72,74,76,78,80,82,84,86,88,90,92,94,96,98,100,102,104,106,108,110,112,114,116,118,120,122,124,126,-1,-1,-1,-1,-1,-1,-1,-1,-1,-1,-1,-1,-1,-1,-1,-1,-1,-1,-1,-1,-1,-1,-1,-1,-1,-1,-1,-1,-1,-1,-1,-1,-1,-1,-1,-1,-1,-1,-1,-1,-1,-1,-1,-1,-1,-1,-1,-1,-1,-1,-1,-1,-1,-1,-1,-1,-1,-1,-1,-1,-1,-1,-1,-1],"split_conditions":[1.2877374E-3,-1.7685315E-2,3.5408784E-2,2.1313678E-2,-3.2285097E-1,-4.1227806E-1,-1.24795444E-1,2.4186151E-2,-3.509332E-2,1.2894807E-3,-2.0924121E-1,3.127818E-1,-2.4567217E-1,3.2437023E-2,-2.3991606E-1,-3.2302785E-1,-8.855684E-2,-1.06901206E-1,-6.275612E-2,-3.2287392E-1,2.7410427E-1,3.358736E-1,2.5140518E-1,-3.2287392E-1,-1.3200647E-2,4.9675888E-1,-2.5169754E-1,1.276456E-1,3.2402566E-1,-5.036241E-1,1.4479385E-1,-3.2287392E-1,-3.9178213E-1,-2.8643212E-1,-1.093491E-1,-1.4216974E-1,-7.033323E-2,2.0655975E-1,-6.0865317E-2,-7.9437053E-1,2.5821495E-1,-1.3171292E-2,2.2649667E-1,-6.390135E-1,6.881761E-1,3.2402566E-1,-1.5616654E-3,-6.3806784E-1,-3.2302785E-1,-3.5873377E-1,4.307547E-3,-5.559977E-1,-2.8643212E-1,-2.1873644E-1,-1.0437138E-1,-2.7872968E-1,3.546326E-2,-4.6637738E-1,4.4051015E-1,1.7816326E-1,4.9673083E-1,1.894428E-1,1.5569262E-1,-1.1344502E-2,4.349999E-3,2.7919267E-4,-9.469329E-3,-1.1307759E-2,-4.5820412E-5,-1.2337205E-2,-5.9293336E-3,-2.4918513E-3,-1.1743257E-2,-3.480094E-4,3.6834101E-3,-1.2710584E-2,-5.338287E-3,3.992822E-3,-6.85606E-3,-5.2844193E-2,-7.1086413E-3,1.1159305E-2,3.644023E-2,-3.010189E-2,-1.2098337E-3,-5.3663585E-2,-2.54052E-2,-5.8297113E-2,-2.3789776E-2,-8.667945E-3,2.387266E-2,-3.907276E-3,-1.5283028E-2,5.8834725E-3,-4.437243E-3,-3.4071307E-3,-2.3350144E-2,6.4541227E-3,2.6780667E-2,2.7923478E-2,5.743183E-2,3.6672463E-3,-2.7188918E-2,-6.1362375E-2,-2.7865695E-2,7.163072E-3,-1.3094419E-2,-2.0122128E-3,1.2857908E-2,-1.2646351E-2,-2.6746455E-3,-9.8223705E-3,1.5801436E-3,1.1821908E-2,2.3849998E-3,-2.1373753E-2,-6.07504E-3,2.6957437E-3,9.028923E-3,-2.085128E-2,-7.0589274E-2,-1.8556159E-2,-4.666643E-2,4.4527072E-3,-4.4638794E-3,-4.880044E-3,3.4040664E-3],"split_indices":[1,2,0,7,1,2,8,8,8,0,0,1,0,3,2,8,7,0,0,0,2,6,8,0,0,5,2,0,2,2,8,0,7,2,0,4,0,7,4,0,2,4,6,8,8,2,0,2,8,8,0,7,2,8,0,8,4,8,2,1,1,7,0,0,0,0,0,0,0,0,0,0,0,0,0,0,0,0,0,0,0,0,0,0,0,0,0,0,0,0,0,0,0,0,0,0,0,0,0,0,0,0,0,0,0,0,0,0,0,0,0,0,0,0,0,0,0,0,0,0,0,0,0,0,0,0,0],"split_type":[0,0,0,0,0,0,0,0,0,0,0,0,0,0,0,0,0,0,0,0,0,0,0,0,0,0,0,0,0,0,0,0,0,0,0,0,0,0,0,0,0,0,0,0,0,0,0,0,0,0,0,0,0,0,0,0,0,0,0,0,0,0,0,0,0,0,0,0,0,0,0,0,0,0,0,0,0,0,0,0,0,0,0,0,0,0,0,0,0,0,0,0,0,0,0,0,0,0,0,0,0,0,0,0,0,0,0,0,0,0,0,0,0,0,0,0,0,0,0,0,0,0,0,0,0,0,0],"sum_hessian":[7.168075E7,3.4483412E7,3.7197344E7,2.6867354E7,7.616058E6,7.909776E6,2.9287568E7,2.3106316E7,3.761039E6,2.35038E5,7.38102E6,9.5792E4,7.813984E6,1.665828E6,2.762174E7,2.059276E7,2.513556E6,2.375409E6,1.38563E6,1.98937E5,3.6101E4,3.8626E4,7.342394E6,7.5138E4,2.0654E4,3.1864E4,7.78212E6,3.16261E5,1.349567E6,2.5895E4,2.7595844E7,2.478553E6,1.8114206E7,1.558442E6,9.55114E5,1.358963E6,1.016446E6,8.92518E5,4.93112E5,3.8217E4,1.6072E5,1.4365E4,2.1736E4,3.0109E4,8.517E3,6.787113E6,5.55281E5,2.3988E4,5.115E4,1.8267E4,2.387E3,2.8085E4,3.779E3,1.72733E5,7.609387E6,1.59965E5,1.56296E5,1.216272E6,1.33295E5,5.55E3,2.0345E4,1.7252796E7,1.0343048E7,1.57396E6,9.04593E5,6.60406E5,1.74538E7,2.51351E5,1.307091E6,3.3528E5,6.19834E5,1.091139E6,2.67824E5,3.71411E5,6.45035E5,6.77324E5,2.15194E5,6.9008E4,4.24104E5,2.328E3,3.5889E4,1.35574E5,2.5146E4,4.483E3,9.882E3,1.2389E4,9.347E3,1.041E3,2.9068E4,7.711E3,8.06E2,6.69651E6,9.0603E4,2.52425E5,3.02856E5,1.2681E4,1.1307E4,2.4109E4,2.7041E4,5.015E3,1.3252E4,8.85E2,1.502E3,1.385E3,2.67E4,2.045E3,1.734E3,8.8966E4,8.3767E4,1.52344E5,7.457043E6,4.3773E4,1.16192E5,9.0316E4,6.598E4,1.26451E5,1.089821E6,6.9119E4,6.4176E4,5.12E2,5.038E3,1.5152E4,5.193E3,1.4775002E7,2.477794E6,3.012672E6,7.330376E6],"tree_param":{"num_deleted":"0","num_feature":"9","num_nodes":"127","size_leaf_vector":"0"}},{"base_weights":[-6.4063305E-3,-1.4264502E-2,4.049729E-3,-2.2708204E-2,-1.1355639E-2,-1.7661631E-2,4.7428003E-3,-8.889641E-3,-2.4683658E-2,4.645699E-3,-1.307909E-2,1.3613451E-2,-2.6509646E-2,-2.8315124E-3,6.7094867E-3,-2.6965007E-2,2.8681036E-2,5.1253047E-3,-2.70097E-2,1.2143627E-2,-1.0691776E-2,-1.9025344E-2,-8.769408E-3,-1.4588614E-4,3.745457E-2,-3.3490885E-2,1.5138626E-2,7.885521E-3,-8.778821E-3,-2.6948252E-3,8.676373E-3,-2.549638E-2,-1.4417511E-1,3.337602E-2,-7.390384E-2,-1.7404208E-2,3.290579E-2,-3.466137E-2,-2.238256E-2,-6.0988107E-4,2.6331276E-2,-5.7488894E-3,-3.0908944E-2,2.085776E-3,-2.4577208E-2,1.3344433E-3,-9.5503265E-3,-9.754084E-2,2.877917E-3,9.518611E-4,4.587691E-2,-6.351696E-2,-2.4702094E-2,2.5540926E-2,-8.120784E-3,6.8635345E-3,5.50324E-2,-1.3404955E-2,6.3307877E-3,8.823453E-3,-9.510324E-3,1.03177E-2,-3.0753617E-3,-1.04675405E-2,1.5977478E-4,-6.37177E-2,-3.2492623E-2,2.6987238E-2,8.128872E-3,-1.5722584E-2,-3.193319E-2,3.7693263E-3,-9.764608E-3,1.5185621E-2,-7.055932E-3,-9.329442E-4,-1.0746666E-2,2.2144718E-3,-7.7161277E-3,-3.5743301E-3,1.7853471E-3,9.483871E-3,-9.197794E-3,1.4574272E-3,-3.5923447E-3,-9.918109E-3,4.088152E-4,-4.255578E-3,3.107992E-3,7.0219184E-3,-7.7886893E-3,1.994786E-3,-7.867622E-3,-4.250579E-3,-1.7844195E-3,-2.2481056E-3,-3.642891E-2,1.9060348E-3,-2.2062844E-2,-7.59148E-3,3.7675863E-3,1.4781645E-2,-1.6949434E-2,-7.738547E-3,-2.1412862E-2,-3.3695956E-3,-9.873298E-3,5.274307E-3,1.4576429E-2,-9.286056E-3,1.2431241E-2,-1.8996269E-2,2.2957814E-3,-4.559367E-2,1.8707043E-2,-1.0309157E-2,-3.359006E-3,1.2109487E-2,6.530766E-4,3.5829095E-3,-1.6213496E-3,-4.3854606E-3,4.8735035E-3,3.4052257E-3,-7.206311E-3,-5.3862766E-3,3.81288E-3],"categories":[],"categories_nodes":[],"categories_segments":[],"categories_sizes":[],"default_left":[0,0,0,0,0,0,0,0,0,0,0,0,0,0,0,0,0,0,0,0,0,0,0,0,0,0,0,0,0,0,0,0,0,0,0,0,0,0,0,0,0,0,0,0,0,0,0,0,0,0,0,0,0,0,0,0,0,0,0,0,0,0,0,0,0,0,0,0,0,0,0,0,0,0,0,0,0,0,0,0,0,0,0,0,0,0,0,0,0,0,0,0,0,0,0,0,0,0,0,0,0,0,0,0,0,0,0,0,0,0,0,0,0,0,0,0,0,0,0,0,0,0,0,0,0,0,0],"id":12,"left_children":[1,3,5,7,9,11,13,15,17,19,21,23,25,27,29,31,33,35,37,39,41,43,45,47,49,51,53,55,57,59,61,63,65,67,69,71,73,75,77,79,81,83,85,87,89,91,93,95,97,99,101,103,105,107,109,111,113,115,117,119,121,123,125,-1,-1,-1,-1,-1,-1,-1,-1,-1,-1,-1,-1,-1,-1,-1,-1,-1,-1,-1,-1,-1,-1,-1,-1,-1,-1,-1,-1,-1,-1,-1,-1,-1,-1,-1,-1,-1,-1,-1,-1,-1,-1,-1,-1,-1,-1,-1,-1,-1,-1,-1,-1,-1,-1,-1,-1,-1,-1,-1,-1,-1,-1,-1,-1],"loss_changes":[5.889685E3,1.005166E3,4.6280765E2,2.8624658E2,8.394136E2,2.6328406E2,4.4398352E2,8.9068134E2,6.361299E2,3.4035645E2,7.041821E2,6.8826645E1,2.156325E2,3.9158395E2,4.3766736E2,1.524289E2,2.0519266E2,4.156361E2,3.013125E2,3.596865E2,9.7111725E1,1.3533687E3,1.2570642E2,3.9179806E1,2.3604439E1,1.6761182E2,2.5760286E1,1.056474E2,2.761772E2,3.2128934E2,3.7744678E2,2.138783E2,2.678798E1,1.4474924E2,1.3035805E1,1.6642928E2,2.9722644E2,1.17463135E2,5.2688086E2,7.764348E1,2.8324994E2,5.156486E1,1.3255234E1,3.2369608E2,6.0763086E2,1.674246E2,2.4602905E2,8.616493E0,3.4271446E1,4.3872843E0,2.1686676E1,4.2634888E1,5.432953E1,1.3495247E1,3.7231552E1,1.1885217E2,7.054472E1,1.4000232E2,1.3093286E2,6.752979E1,3.3826312E2,6.0909827E2,5.632336E2,0E0,0E0,0E0,0E0,0E0,0E0,0E0,0E0,0E0,0E0,0E0,0E0,0E0,0E0,0E0,0E0,0E0,0E0,0E0,0E0,0E0,0E0,0E0,0E0,0E0,0E0,